A_Nurse_s_Calling,-0.035321858,-0.056415793,0.06907718,0.029205145,-0.026003238,-0.033090178,-0.018280521,-0.0067503992,-0.06053162,-0.0064824456,-0.041631054,-0.017957825,0.030954383,-0.023081558,0.07928216,-0.071268655,0.012302738,-0.058944803,-0.08242263,0.058387376,-0.024881786,0.039859265,-0.08700942,-0.040495746,-0.0057964926,0.020559551,-0.05924988,0.047298737,-0.023424705,0.05586944,0.03336194,-0.029288873,-0.05994463,-0.022668608,0.075627856,0.010554835,0.0034221835,0.039945383,0.03187209,-0.010510164,-0.03934792,-0.07963866,-0.039364003,-0.013688396,0.042828947,-0.042078085,0.041917797,-0.0328765,-0.024870727,-0.030923387,0.004354268,0.080543116,0.006110415,0.09868274,-0.013744447,-0.03088143,0.028971506,0.059494574,-0.08200924,0.03030725,0.07948798,0.0021452976,0.06753205,0.039047193,0.043281484,0.05132993,0.07408132,0.07170594,-0.07699407,-0.0081520425,-0.044342212,0.0152004445,-0.035241842,-0.012491412,0.042678602,0.024451274,0.031967305,-0.025694337,0.05651609,-0.013388978,-0.038765084,0.06842532,-0.07278391,-0.01822512,0.0374666,-0.06446462,0.08949465,-0.05801702,0.014594551,-0.0028133816,-0.0009655739,-0.070745744,-0.05493513,-0.028607894,-0.015940731,-0.017211953,0.0605531,0.054837435,-0.09466619,-0.037644114,0.0046282215,0.032506563,0.05328789,-0.033001225,-0.06493125,0.01592311,0.06153263,0.021976877,0.08935326,0.017105544,-0.022896895,0.023584377,-0.015162822,0.028220523,0.06835562,-0.06599397,-0.069855206,-0.08312158,-0.0055018766,0.039792933,0.08576621,0.011857167,-0.071601324,0.0289046,-0.052342556,0.046495844,-0.0013291502,0.0061418284,-0.073910795,0.03634541,0.03683069,0.034851875,0.00561566,0.077230126,0.06140921,0.07587716,-0.001631313,0.054449264,0.031337276,0.03851726,-0.054587528,0.038629808,-0.0041788016,-0.042776473,-0.023684835,-0.021437302,-0.07625123,0.0075322143,0.017396279,-0.084153466,-0.006567112,-0.056024928,-0.03938856,-0.048898187,-0.0617917,0.060701754,0.012331023,0.06908213,-0.047944292,-0.046863653,-0.016155738,-0.017332466,0.058534347,-0.054195303,0.011367457,-0.03262474,-0.0032999788,0.013430671,-0.03061753,0.049105115,-0.020630285,0.0015602873,0.062387843,-0.0905125,0.053536125,-0.052756842,-0.08719908,0.022314688,-0.011472284,0.007471863,0.04700203,-0.03662998,-0.07153645,0.048591137,0.08363927,-0.03607909,0.061106864,-0.046509266,-0.009953229,-0.0094263945,0.023874484,0.019042468,0.006662652,0.013548004,-0.032179877,0.08760534,-0.06751329,0.0026897055,-0.0336341,0.057807177,0.059317093,0.093204245,-0.0708091,-0.023647424,-0.00926314,0.06343008,0.026823107,-0.06737882,0.02526892,-0.012669147,0.012071981,0.0065557966,-0.04839187,-0.059510596,0.021733241,0.052862827,-0.027218781,0.005383311,0.0006956543,0.012529964,0.030494342,-0.021626169,0.039189056,0.0051321606,0.11141177,-0.025564406,-0.085073,0.020481871,-0.0031784046,-0.015009882,0.06075221,0.036582373,0.024166739,0.0606644,0.062379345,0.048275393,0.016923804,0.045295004,-0.04652335,-0.05736657,-0.062384117,0.004585084,0.058196858,0.0958505,-0.06358095,-0.045725934,0.061718673,-0.027380431,0.06513788,0.03302911,0.041423783,0.07406422,-0.036166262,0.023842787,-0.06422529,-0.007254661,-0.08225511,0.0714616,0.024532177,0.048430223,0.0010319137,-0.00094925147,0.000991294,-0.06633586,-0.05224537,-0.085208386,-0.03676427,0.030820087,0.051595543,0.0076105995,0.008951156,0.062159903,-0.012893888,0.034785766,-0.07294016,-0.06716291,-0.00665747,0.010728604,0.018050473,-0.034333058,0.070165865,-0.052564174,0.033910204,0.072337724,-0.03388051,0.0011332318,0.04441696,0.014684274,-0.03824963,0.08683101,-0.06630916,0.071979135,-0.016941791,0.026338324,-0.0070916144,-0.092898615,0.040753942,-0.053383026,-0.0006808832,0.029971708,-0.028509822,-0.0019207703,0.09541216,-0.022936106,0.0148397405,0.04435796,0.0874941,-0.05396923,0.02030355,-0.05102696,-0.015888197,-0.0500553,0.009442405,-0.041884705,0.0061334367,-0.086057834,0.06610462,-0.02370792,0.09187485,0.07390382,0.046153016,-0.096135646,-0.073449254,0.027224718,0.043886464,-0.004360245,0.037712142,-0.025041483,-0.026341282,-0.028972236,-0.05334294,-0.080343425,0.034731004,-0.034866467,-0.08198008,-0.040801857,0.057086807,0.0019535,0.025331464,-0.10060379,0.022932954,0.008528114,0.024686921,-0.001975376,0.021055674,-0.061340615,0.07926434,0.0004762391,0.078043416,0.06491875,-0.08367803,-0.012095448,0.087701194,-0.03925121,0.030520052,0.0830152,0.069591485,0.06865613,-0.0038232515,0.06968854,0.06832568,-0.04760544,0.02836343,-0.06612603,0.0043241284,-0.0690558,-0.05822857,0.00478018,0.03746313,0.047852032,0.061441604,0.02598249,0.021595802,0.04145477,0.07925001,0.06020634,0.07195401,-0.032832716,0.05695841,-0.018186634,-0.0037093023,-0.02734483,-0.035272572,-0.020737765,0.09467414,-0.01817391,0.043169953,-0.043323133,0.027290825,0.0025664137,0.016323619,0.03537438,-0.06578898,-0.012960822,-0.030999368,0.06601485,-0.012771188,0.0030427205,-0.015059602,0.0020727422
Ace_Visconti,-0.025152212,0.039694976,-0.0043904455,-0.039415494,0.08918912,-0.015783042,-0.06561673,0.07757552,-0.009522657,0.002319478,-0.03231878,0.08664629,-0.054488007,0.07192623,-0.0185054,-0.015754178,0.09102415,0.044521395,0.083857596,0.010017742,-0.021930292,-0.02029562,-0.055667702,0.03357546,0.05763579,-0.0050378772,-0.030517021,-0.07673771,0.011661003,-0.044682752,0.046084587,-0.094424166,-0.008270864,0.08929915,0.05004248,0.036087055,-0.005923395,0.093862,0.082428634,-0.0007190136,0.04802423,-0.06954315,-0.070776425,0.0063295504,0.09997191,0.023460932,0.0011151908,-0.03194244,0.0980457,-0.034016527,-0.022827739,-0.043643687,-0.0028064502,0.052709345,-0.05874582,0.06548466,-0.074813865,-0.054528277,-0.010007357,-0.008491456,-0.048209764,0.014922004,0.09254705,0.045866765,-0.06301417,-0.07032207,0.046795264,0.03652756,-0.06110245,-0.01322955,0.013699355,0.00038491303,0.032392155,0.08187019,0.037965797,-0.090946294,0.07237517,-0.051756542,0.074979655,0.09035802,0.06560832,-0.047973786,-0.044848908,0.057576,-0.010655218,-0.0058879554,-0.006509684,-0.03894142,-0.051224038,-0.017220352,0.052703872,-0.030339548,-0.03590999,-0.07313341,0.044100765,0.013048667,-0.023504972,0.05645764,-0.08795797,-0.03823328,0.022946537,-0.038409073,-0.046462227,0.06292183,0.068188004,-0.0083128195,0.021180877,-0.030246945,-0.08479041,-0.005710417,-0.071119964,-0.040430453,0.072617136,-0.07540975,0.066373564,0.034021698,-0.0511692,-0.07978127,-0.050586615,-0.052946504,0.083329126,-0.031822607,0.09981489,-0.067809395,-0.077274404,0.07035617,0.027890908,0.05829117,-0.017842283,0.016978815,-0.05591889,0.033555172,-0.0534805,0.033582423,0.081468426,-0.04483131,-0.056132026,0.010275559,0.01579017,-0.006997359,-0.081116006,0.015043974,0.04535101,0.027004179,-0.029158883,-0.016468318,0.010534157,0.028639786,-0.015767703,-0.0044710324,0.04952063,0.066329904,0.042166557,0.097434305,-0.045150448,0.01860695,-0.04606487,0.018179798,-0.034530554,0.024571348,-0.03576439,-0.005527837,0.06973991,-0.09004788,0.072479494,0.06578804,-0.043610867,0.07106629,0.0243229,-0.032933738,0.045069966,0.07757632,0.0047149155,0.086844526,0.0031871824,0.040144,-0.03959673,0.008965051,0.09043918,-0.012001999,-0.071652584,-0.014785724,0.06943422,-0.04484887,0.062259376,0.031240774,-0.025603509,-0.082629465,-0.051712725,0.08198323,0.05964351,0.04892801,0.0310976,-0.00243722,0.060071185,-0.008309187,0.0095904805,0.005549868,0.03794656,0.06980439,-0.0079844035,0.053779513,-0.058128465,-0.03387061,0.054144908,-0.04756825,-0.074149415,-0.043171186,0.05197087,0.016389327,0.027899332,0.012952642,0.0674661,0.07899961,0.033683278,-0.080260545,-0.02865588,0.036529653,-0.044421222,0.08005252,-0.014829046,-0.006382419,-0.081347995,-0.009547624,0.042812858,0.02809793,-0.040163964,-0.034578558,-0.02865315,-0.017919526,0.027425341,0.0679611,0.029077468,0.033277538,-0.0521,-0.024966097,-0.054459155,0.04603714,-0.034885515,-0.03993258,-0.012449049,-0.07517213,-0.050544802,-0.07595339,0.042791266,-0.002660693,-0.020811677,-0.009486854,-0.0139964,-0.09675574,-0.022399392,0.02519168,-0.08609894,0.07190446,0.006041313,-0.020162191,-0.07320367,0.056587063,0.08435668,0.017590823,0.028478965,-0.049743515,-0.0043187262,-0.06729736,0.016533077,0.05257444,-0.07308109,-0.088052906,-0.04839723,-0.016053956,0.074363396,-0.062171243,0.0398994,0.03582544,0.06711693,0.0031368153,-0.047297243,-0.010959762,0.013933906,0.09306959,0.0627279,-0.043524854,-0.048308104,-0.007428043,0.082291745,-0.07079266,0.0376221,0.10440562,0.09981552,0.08585848,0.028869975,-0.020672958,0.023361038,-0.0207446,-0.05558766,0.06546502,-0.020396633,0.044936754,-0.030644849,0.008666495,-0.066642016,-0.031449236,0.05006838,0.042629406,0.059300493,0.027327672,0.0013800248,-0.05031847,0.08850058,-0.028406603,-0.08355576,-0.053683147,-0.013921267,0.009103576,-0.06475123,-0.06248866,-0.040403534,-0.029885812,-0.065667346,-0.03283647,0.09421526,0.029748734,0.06379206,0.090440586,-0.032055937,0.051038124,-0.026612865,-0.0053971936,0.007960195,-0.078579046,-0.056210224,-0.044817455,-0.058698855,0.074950226,0.097364284,0.07020663,0.0696487,0.022699373,-0.01703558,-0.014350975,0.058851782,-0.031027736,0.063936345,-0.034323677,-0.08138146,-0.057861812,0.04936361,0.025993535,0.049204506,0.051322643,-0.084113024,-0.039554507,-0.02204589,0.0489392,-0.017164072,-0.012174326,-0.0042324336,0.055332348,0.0059691984,-0.051733933,0.040116154,0.031326063,0.06812231,0.00056220545,-0.025570594,-0.04870124,0.0048805433,-0.04351183,0.03865599,-0.049351163,0.030237284,-0.007830411,-0.0076566692,0.046488766,0.0722201,0.07639765,-0.021569392,0.07114404,-0.055297032,0.006169924,0.01790685,-0.01865648,-0.001291767,0.0018140674,-0.00092677376,0.0023704735,-0.010719485,-0.052400917,-0.01612161,0.015012608,-0.07100808,0.024532229,-0.0028728873,0.033918064,0.028663741,0.01508749,-0.008720652,0.05561973,0.057923283,0.049698524
Ace_in_the_Hole,-0.024378495,-0.034642935,-0.0034896466,0.07572069,0.042644776,0.009417878,0.0137095945,-0.080103464,-0.077931955,0.08106605,-0.0012312542,-0.06973581,0.011327503,0.033148896,-0.07405983,-0.0555816,-0.022368595,-0.0006415942,0.040482003,-0.041910507,-0.058644906,0.031153303,-0.035217576,0.065113515,0.056790896,0.06657511,-0.029268943,-0.023526749,0.077778235,0.047100015,-0.037806112,-0.07860382,0.059722543,0.024387952,0.036094215,-0.072863884,-0.057637926,0.05006389,-0.00093903346,0.08331925,0.05151377,-0.051901903,-0.04575752,-0.0729697,0.0023483394,-0.102164924,0.013527463,0.0029740846,-0.08370223,-0.03344676,-0.029678557,0.04352784,0.079907425,0.07136295,0.05240633,-0.014293064,-0.06982102,-0.045601983,-0.08989121,0.018858831,-0.053229526,0.093149036,0.020847471,-0.04147127,-0.046369843,-0.03728462,-0.039474655,-0.069395654,0.022534557,0.002116311,0.07601182,0.005730391,-0.07176373,-0.07624636,-0.013899835,-0.05614414,0.044491224,-0.0083028255,0.05204816,0.01297151,-0.05876043,-0.042427767,0.09894569,-0.045540113,-0.0594639,-0.012931692,0.07958352,0.06424255,0.012182219,-0.04571383,-0.0013342614,0.02994284,-0.0094716335,0.023628302,0.06624573,0.015518275,-0.060253095,-0.014860013,-0.029578278,-0.055330567,0.05435585,0.03868034,-0.05813649,-0.07984879,0.016098166,0.063437924,0.093774185,0.05433458,0.07210815,-0.007803425,-0.048015233,0.08409893,-0.041958716,0.056414317,0.0034508894,-0.012270706,0.06561533,0.04352408,0.056728117,-0.021323577,-0.01663026,0.07399592,0.037486255,-0.062884815,0.01675705,-0.043021776,-0.073458344,-0.019550858,-0.07497263,0.069149174,0.027534738,0.030335259,0.07703493,0.008883955,0.07163101,0.059936482,0.031340715,0.071542725,-0.017621495,-0.06694652,-0.016951358,-0.005627079,-0.050901253,-0.05305892,-0.04728246,-0.02543838,0.06728188,0.06288033,0.0067523103,0.055536017,0.023263298,0.002088082,-0.06457393,-0.06718415,-0.0039329287,0.0006474127,-0.0476539,0.049694933,0.010239632,0.03394624,-0.00058694836,-0.01813312,0.056001782,0.03132121,-0.07897855,-0.04463007,-0.036664262,0.026833335,0.06773933,-0.05475298,0.05477709,-0.0069877612,-0.047735907,-0.01280208,0.058598902,0.021875655,0.009268435,0.0018900734,0.022660766,0.058113426,0.055955783,-0.055807658,-0.044323534,0.053944327,0.019142486,0.032092232,-0.072921276,-0.027061723,-0.011052639,0.026485275,-0.065889485,0.025678188,-0.036527786,-0.045959413,-0.017385831,0.060216896,-0.06063988,0.039278317,0.06172109,-0.083878584,-0.06753142,-0.030709123,0.011089694,-0.077996165,-0.03825185,-0.043965545,-0.05374739,0.07251123,-0.017228127,0.018786792,-0.07986525,0.024695478,-0.08033999,0.08406555,0.056362372,0.0765708,0.060829658,-0.005304848,0.032152448,0.026350703,0.07799973,-0.0217912,0.02148741,0.06603514,0.096981466,-0.09179139,-0.035727926,0.031055715,0.048485287,0.042818755,0.06837236,-0.08437451,-0.03166208,-0.059283838,-0.028369807,0.09144585,-0.07255124,0.07988163,0.061007448,0.057901528,-0.032643214,-0.0029122673,-0.012358599,0.014539311,-0.062361147,0.009353134,-0.003933791,-0.074419096,-0.023112467,-0.034207225,-0.08973293,-0.0012189216,-0.0699028,-0.018771062,0.05390323,0.0070536756,0.065683454,-0.061170414,-0.025570279,0.040833827,-0.06321158,0.072656736,-0.043685295,0.08584292,0.0616124,0.08122195,-0.035032544,-0.066393696,0.079593524,-0.061042145,0.0021868502,0.076079465,0.05375319,-0.017693425,0.07209124,0.073347926,-0.012568787,-0.06869299,0.015375851,0.053426925,-0.079140656,-0.05472288,-0.0735034,0.04366932,-0.04287175,0.006138673,-0.07539212,-0.06260169,0.0073424163,-0.063184835,0.023279527,0.024423929,0.02926926,-0.0073557766,0.022710158,-0.059079234,0.023671439,-0.04231588,-0.072117224,-0.012817045,-0.008211727,-0.09250348,-0.008948496,-0.02157506,0.05231584,0.08802652,-0.0342497,-7.0734095e-06,-0.021161813,0.0056945207,0.07336436,0.08679767,0.030207496,0.073005915,-0.0061619175,-0.049603563,0.057668936,0.06970642,0.05552168,-0.031837873,-0.07300764,-0.07206683,0.07442791,0.07508714,0.04091567,0.0042120838,-0.07200409,0.05672222,-0.026542513,0.031881925,0.02105098,-0.013019486,-0.05718632,0.045493707,0.022289412,0.020463413,-0.02262252,0.047453135,-0.0527826,0.017581888,0.05968619,0.03485405,0.016080266,-0.014047481,-0.07632283,-0.08108679,-0.045595538,0.061257746,-0.09457646,0.011777678,-0.0030525608,0.06609094,0.00709475,-0.09427697,-0.074533716,0.0027238743,0.067897014,0.0809652,-0.065819904,-0.02578233,-0.03340468,0.08661838,0.06320542,0.04370667,-0.07764687,0.060136396,0.0709391,0.03299996,-0.09228654,0.008197253,-0.09853254,0.0500362,-0.08597543,0.010290934,-0.09684357,0.036862265,-0.09091291,0.09277367,-0.05042118,0.06562662,-0.045794833,-0.0067609097,-0.03040142,-0.065841116,0.060911242,-0.082776524,0.02330715,-0.089183934,-0.064316645,-0.08536227,-0.057958648,0.06284181,-0.06945856,-0.00050842843,0.08650377,-0.07380747,0.04986016,-0.03268576,-0.010001779,-0.008757974
Ada_Wong,0.07291495,0.088878244,-0.03244807,0.05339603,-0.06584548,-0.04633311,-0.0061778943,0.062080774,-0.095662974,-0.023069564,-0.052826475,0.07281603,-0.008071766,-0.03508186,0.09989872,-0.031869434,0.0685079,-0.050079785,-0.0049293875,0.026707703,0.05745909,0.036563054,0.021056945,0.018571384,0.008678296,0.06256767,-0.04864286,0.06646451,0.040863384,0.019048873,0.07138199,-0.038176205,-0.015904944,0.0016343142,-0.012199687,0.08265575,0.062442083,-0.025996173,0.00088058517,-0.009787558,0.061864667,-0.022902014,0.05308747,0.012899362,0.07013153,0.05834336,-0.07957216,-0.055608224,-0.029156322,-0.0675038,-0.063340224,0.00020942552,-0.101575494,0.04930713,0.04294551,-0.05196585,0.028073123,0.02933174,-0.07004923,-0.030831281,0.06248218,-0.047819786,0.08999235,0.059476513,0.057845473,-0.040358115,0.08345043,0.0019816926,0.033045176,-0.0021907436,0.024671365,-0.072732456,-0.01287146,0.0060343323,-0.036602627,0.055597246,0.03925785,-0.07563168,0.022283703,0.101549566,-0.065527245,-0.053560924,0.01107929,-0.0707239,-0.0036353837,0.0900069,-0.0020773883,-0.06796857,-0.024158766,0.053725235,-0.04965167,-0.057805065,-0.036998425,0.05870678,0.06095629,0.07063314,0.017465968,0.054470584,-0.066911295,-0.060015988,0.0791379,-0.028355822,0.008111721,0.04782152,-0.05366014,-0.046028536,0.023988934,0.08946967,0.009945045,0.030891603,-0.04436522,-0.008442039,0.002915626,0.046920445,-0.04923875,-0.03912391,-0.014133501,0.054634318,-0.030092806,0.08006571,0.01451289,-0.026778294,0.049264435,0.017859621,-0.0909418,-0.09316795,-0.04217138,-0.07244976,0.035409074,-0.014988303,0.07542763,-0.050710857,0.01431117,-0.027727336,0.03508201,-0.0033925816,0.09643738,-0.01630549,0.00030359175,-0.09835319,0.03736288,-0.061871983,-0.058769304,0.048683964,0.02877335,-0.08526793,0.052497588,0.0037965588,0.0036596805,-0.029141003,-0.049338188,-0.0063406564,0.05874753,0.08135516,-0.06376295,-0.024697656,-0.082176395,0.026553072,0.036411207,-0.05444816,-0.093497,-0.044068318,0.020410795,-0.06158614,0.050071098,0.03576696,-0.032102242,0.093445666,-0.057392966,0.049589984,-0.0359773,0.085915625,0.034686234,-0.06247543,0.0018197217,-0.06707261,0.096363485,-0.06665341,-0.06305229,-0.039212167,0.050393168,-0.046117995,-0.10105483,-0.08956206,0.058336154,0.052529365,0.07850379,0.011385515,-0.013985035,0.03682583,0.007585632,-0.07262766,0.028403094,-0.052678555,-0.055118576,0.07956128,0.038884904,-0.045129325,0.025321404,-0.0312297,-0.0043424573,-0.042185027,0.05562671,-0.036658674,-0.01431539,0.016111063,-0.052369986,0.011627629,0.030504968,-0.01603511,0.030299427,0.073006436,0.05760358,-0.059863344,-0.026484475,-0.10190327,0.06928,0.06449809,0.07047077,0.08663972,-0.017506022,0.013709689,0.0062582083,0.026082203,0.011594508,-0.04268194,-0.0007602563,-0.03724612,-0.047482055,0.013746832,0.057611004,-0.058571294,-0.0666686,-0.009197255,0.018139957,-0.027993316,0.045998704,0.021021048,-0.054951403,0.06598862,0.00255044,0.06072801,-0.044164374,0.06670101,0.009475438,-0.0093429275,0.09787788,-0.014893732,0.09347508,-0.027169174,0.010953573,-0.001594345,0.061611168,-0.0020499672,-0.03188136,0.011158397,-0.05926605,0.065425694,-0.06790641,-0.016638376,0.012218648,-0.08797145,-0.09943554,0.047098704,-0.014989428,0.078625195,0.032230332,0.05809485,0.09888472,0.07800271,0.022219284,0.04062202,0.034453027,-0.047387116,0.07440775,0.06708181,-0.031188138,0.030480308,-0.073163845,0.08761885,0.050246257,-0.05575923,-0.014009989,-0.06063286,0.0839522,-0.09916847,-0.026482549,0.0299441,0.055352453,0.05101645,0.088442735,0.082657605,0.028043995,-0.012265806,0.02969949,-0.04897144,-0.062967554,-0.067160316,-0.03482115,-0.045831587,0.061629623,-0.06511843,0.048318516,0.032861467,-0.0027875253,0.07597096,-0.03898553,0.0072779134,0.09122099,-0.07517682,-0.08694147,-0.006005994,-0.060278397,0.07376397,-0.067416735,-0.02457778,-0.045857456,0.08743388,-0.004146617,0.047764264,0.0190166,0.0051806476,-0.021679522,0.06639832,-0.059952807,-0.0010988018,-0.04218468,0.06219909,0.026025258,-0.012396167,-0.071682386,-0.07550844,-0.05367686,-0.026214847,-0.03622742,0.041393235,-0.047570173,-0.023141429,0.006124034,0.03128792,-0.064623244,0.074262075,-0.04562125,-0.0630396,-0.03441916,-0.060912717,-0.0106917685,-0.019404484,-0.012662254,-0.007994544,-0.09492358,-0.0962552,0.06925462,0.049321428,0.0050143204,-0.06262757,-0.00106172,-0.055263247,0.021828484,0.021837711,-0.05607024,-0.019121647,-0.018129183,-0.07389709,0.0334334,-0.05877799,-0.02564907,0.045810953,0.064912915,-0.06259056,0.074017495,0.007953973,-0.00417924,0.08502174,0.0089401165,0.013487257,-0.08372781,0.01745884,-0.07070013,-0.047133557,0.09764347,-0.023789095,-0.06149523,-0.025429623,-0.008019087,0.05707489,0.08165729,0.0039603207,-0.062367402,0.010431754,0.010925721,0.049882684,-0.037145924,0.07828972,0.04032913,0.092633136,0.03558722,-0.0069413907,-0.017436514,-0.045084354
Adam_Francis,-0.083388716,-0.040611144,0.03354108,-0.0050672777,0.0024200375,-0.011673594,0.014011469,0.009781685,-0.040384132,0.041470133,-0.074039176,0.022524193,-0.07816039,0.089751564,0.043761835,-0.09498801,0.09292578,-0.006307006,-0.05163959,0.022423435,-0.009670816,-0.014132592,-0.052885566,-0.029803798,0.0896746,0.0751325,-0.034295082,-0.04297294,-0.0074102087,0.031582646,-0.047679063,0.0058889505,0.06546041,0.011629247,0.032385092,-0.082814686,0.020947782,0.010200472,0.03465085,-0.046694282,-0.007034812,0.019380542,-0.03267996,0.06920239,-0.029970568,-0.045498706,-0.069661774,-0.07797504,-0.02904421,-0.003379406,0.06392148,-0.09276364,-0.01629296,0.06740401,-0.004995213,0.038771737,-0.09139933,-0.055192035,-0.061822508,-0.04655804,0.0073077306,0.0630485,0.0809668,-0.06613483,0.010046866,0.031477094,-0.023151705,0.094625615,0.10310269,-0.0756768,-0.023941213,-0.030214738,-0.05915132,-0.06645673,0.048808362,0.038420524,-0.017284766,-0.04209241,0.076695465,0.066920266,0.062380005,-0.061043408,-0.006962019,-0.056801062,-0.047715887,0.0053748004,-0.05473328,0.043457594,-0.0012331787,0.043839432,0.06830364,-0.042521685,-0.02453843,0.06152257,-0.06922148,0.0800464,-0.026748823,-0.046263676,0.038723964,0.056564208,0.04597918,-0.08757804,-0.026792368,0.05985778,0.030140942,0.02328936,0.018966159,0.093533315,-0.037632354,0.060015254,0.04250926,-0.11095732,-0.025720356,-0.067110695,-0.033065125,-0.06001726,-0.048528466,0.030129077,0.033288438,-0.020076701,-0.111873135,0.07106299,-0.05627429,0.04255425,0.05406501,-0.02221128,-0.06947848,-0.004050009,-0.049649797,0.10395242,0.007791888,-0.029822806,0.016317436,-0.051291548,0.03950635,-0.07682824,-0.01700079,-0.054679614,-0.022907868,-0.0613576,-0.01722194,0.042834666,-0.023085445,0.071625024,0.05745601,0.014172991,0.02196602,-0.051000424,-0.05104748,0.051760443,-0.07001556,0.06018686,0.042066354,0.023823438,0.064186975,-0.050426695,-0.0056768307,0.047984086,0.10177038,0.06050912,0.051426243,0.025796782,0.05244099,0.00016306629,0.0494546,-0.044159185,-0.0016444385,-0.009340671,0.026226994,0.07684977,8.3995255e-05,0.07583705,0.04327288,-0.051579107,0.022434615,0.06407673,-0.015653769,0.055922654,0.05586355,0.016876923,-0.057967443,-0.05771228,-0.043773927,-0.0008033966,-0.091461435,0.035701565,-0.01650677,-0.019807491,-0.050613817,0.018579021,-0.061705492,-0.07976155,0.05151783,0.00016069837,-0.07876253,-0.03129375,-0.008074627,-0.060777385,-0.00155696,0.044649772,0.07001336,0.05054438,0.102720745,-0.029138973,0.012650628,-0.021408606,0.023802115,0.039248284,0.057830513,-0.03983685,0.005889081,0.037602,-0.02006661,-0.0023763375,0.07147949,0.030123623,0.06697005,0.017919237,0.043668192,0.0051157726,-0.004320804,-0.081499755,0.060115542,0.07562895,-0.022451598,-0.0137526905,0.057297133,-0.010901065,0.01546399,0.003270864,0.01049818,0.03322568,-0.0109733995,-0.09207412,-0.031687636,-0.029328132,0.04225256,0.025578542,0.047373157,0.007488343,-0.010762041,-0.00708095,-0.0796006,0.04460119,-0.07070296,0.021143856,0.06667601,0.069149226,-0.056882504,0.059388626,0.08246826,-0.07202509,-0.011978692,0.008879183,0.061019685,-0.026582364,0.06416222,0.014427763,-0.007831056,-0.033030942,0.029886017,-0.0049099876,0.008335403,0.036540695,0.021523643,-0.030318987,-0.009902049,-0.004786269,0.07891891,-0.028430622,0.0068525774,-0.016031947,-0.08516011,-0.019417282,-0.026156904,-0.013191017,0.08370163,-0.045149617,0.08690425,-0.002802725,-0.077862956,-0.07352279,-0.07687561,0.05835359,0.035412088,0.07945842,0.08361181,0.09772292,0.028650368,0.0063080937,0.074999824,-0.04086357,0.009695589,-0.043204714,-0.09931852,-0.0096137,-0.06814279,-0.0709614,0.052421324,0.083082385,0.045286708,0.011108704,-0.064300396,0.031748068,0.06763355,-0.0030258761,0.03597962,-0.06469572,-0.055695742,-0.043662347,-0.056279916,0.04910565,0.071236804,0.07408118,-0.04504039,-0.0070784497,-0.022370657,0.0667154,-0.08214146,0.045793805,0.06381761,-0.053781044,-0.044554137,-0.06806914,-0.0557334,-0.07959214,0.046502713,0.03686455,-0.053910892,0.0020431185,-0.035525396,-0.028634593,-0.035983626,0.05581714,0.0056780605,0.05211499,0.06842476,0.033028368,0.012055355,0.07389977,0.08358829,-0.038362194,-0.031021511,-0.05125404,0.054226685,-0.040436592,0.037603375,0.00028940802,-0.0066092885,0.042349752,-0.049082175,-0.08202116,0.0020876068,0.012212462,-0.039843984,-0.031131038,0.087242484,0.06550465,-0.061685473,-0.0103532355,0.091650285,-0.06065354,-0.021448422,-0.03868597,0.051605485,-0.042373948,-0.031878836,0.055326425,-0.020179199,-0.008581801,0.08494046,-0.096501365,0.0930182,0.062479023,0.028390458,-0.07028337,0.019481411,0.024714714,0.05126054,0.020812385,-0.025229534,-0.056185167,-0.06945346,0.0119147785,-0.0908313,0.018220572,-0.01685786,0.04940755,-0.057893284,-0.07843624,-0.02818261,-0.030348267,0.043466095,-0.07427013,-0.070785746,0.06678454,-0.041272394,0.058661144,0.020661928,0.044920366
Adrenaline,-0.023863953,0.031321555,0.03897912,0.028509483,0.01719029,0.05627974,0.0014472781,-0.08847614,0.058939606,-0.006308035,0.06960871,-0.038101256,-0.069127336,-0.022136806,0.017085316,0.052810103,0.03667475,0.080689386,-0.0040937737,0.052037477,0.054425724,-0.026139574,-0.061249837,0.039963353,0.06896037,-0.07615952,0.039403126,0.059093192,0.0091510285,0.03919883,-0.067847945,0.066403426,-0.06529469,0.025570733,-0.035718273,0.04375375,-0.0003086122,0.04578112,-0.035193805,0.027829314,-0.057446133,0.006242755,0.08357693,0.036409967,-0.07725754,-0.043726318,0.00072755245,0.041998383,-0.05679942,-0.03460066,0.074158154,-0.04898386,-0.0403617,-0.057395466,-0.021666791,0.009034871,0.012454413,-0.04946799,0.035625625,-0.0894813,0.009040159,-0.019450659,-0.042020645,-0.05801589,0.06860188,0.039332464,0.026195249,-0.050063737,-0.065026626,-0.09525563,-0.003646237,-0.055938,-0.06415218,0.036145598,-0.044803943,0.0898914,-0.030491257,0.045557253,-0.10247161,0.015071771,0.033679433,-0.11797046,0.054113284,0.08767974,-0.07478287,-0.04816271,0.04145001,-0.04352024,0.0449377,-0.019447569,0.0061771153,0.046989907,0.03651075,-0.055387974,-0.03845087,-0.063733965,-0.0027217804,0.04749842,-0.027164018,-0.088893585,-0.04131808,0.054616954,-0.09880536,-0.10124246,-0.01637715,0.01584956,-0.015043192,0.025444696,0.057357192,-0.004718768,-0.03697072,0.035754185,-0.04605241,0.032421958,-0.062057782,0.08375518,-0.03331505,-0.096404314,-0.035065256,0.065351635,-0.052850414,-0.005368936,-0.076914355,0.1067761,-0.013643209,0.07122061,-0.024128128,-0.031117635,-0.03826176,-0.00012383555,-0.07318837,0.029241618,-0.006537322,-0.014687177,-0.115708336,-0.04202713,-0.020724958,0.05801235,0.047128536,-0.08272221,0.015726727,0.0126049975,0.05173712,0.06329609,0.10142934,-0.07004577,0.055604167,-0.060075164,0.043020003,0.027500717,-0.010795018,-0.062213197,-0.050212696,0.066168405,-0.104471765,0.03306238,0.02360313,-0.037466727,0.009230407,0.04399862,0.07189678,-0.008572252,-0.036528185,0.009553716,0.022444837,-0.021565264,-0.08605106,-0.021377755,0.0057671927,0.07936245,0.008578999,0.076037884,0.043108713,0.071810775,0.056916054,0.08062252,0.044226885,-0.05137517,0.085865356,-0.05834262,0.049181763,0.05340461,0.010705303,0.056046806,0.04747973,0.06651943,-0.06697812,-0.059998374,-0.04334631,-0.013446521,0.075396806,-0.03310535,-0.002550462,-0.05218357,-0.023317749,0.015886793,0.049288314,0.027971772,-0.099322826,-0.044344746,-0.0029202632,-0.104295455,-0.04088657,-0.034123614,0.0886967,-0.032088164,0.035941333,0.07622676,-0.07190891,0.015755909,0.031008283,0.055696808,0.042022258,-0.025461514,-0.020277401,-0.03183122,0.047480494,0.054749247,0.07581643,0.06876745,0.067783214,0.017209217,0.04620207,-0.0064750547,-0.054761406,0.022698019,0.08554474,-0.010702319,-0.017317204,-0.039537866,0.04980569,-0.06000142,-0.06197319,0.017782914,-0.06963669,-0.008219309,0.043632552,-0.04889508,0.09625161,-0.019896524,0.056098595,-0.048146978,-0.07994669,0.048935756,0.017865468,0.02864855,0.03290035,-0.056831658,0.0027254557,0.078973114,-0.06518883,-0.004330787,-0.1055805,-0.056997016,-0.07010369,-0.016634248,0.087082654,-0.096496806,-0.020903818,0.028530091,0.046589058,0.015071746,-0.09887025,0.07070047,0.06695312,0.033957057,0.07540559,0.068171486,-0.024022447,-0.036397524,0.07205912,-0.076358594,-0.034430753,-0.053112645,-0.019677375,0.027427386,-0.017204711,-0.017968986,0.060206257,0.03364881,-0.023049438,-0.06546333,0.019641023,0.03449445,-0.011582735,-0.06764964,0.04880758,-0.027235562,0.04243545,0.090066805,0.015739204,0.05534701,0.043494124,0.007125749,-0.053333562,0.072701894,5.7763362e-05,-0.07117827,0.028244559,-0.107996784,0.03897875,0.0058698133,-0.014697157,0.019840399,0.0004561878,0.028583476,0.0048485473,0.09197161,-0.05929571,0.046036962,0.018901201,-0.033643615,0.065277375,0.03424245,0.073487215,-0.008343016,0.020726044,-0.037959475,0.022805233,0.029549912,0.058066316,-0.05350652,-0.09891853,0.059754796,0.007695952,0.045264836,0.021422086,-0.009338399,-0.08815621,0.11379459,-0.03770144,-0.01756702,0.066933766,0.04053433,-0.0033225433,-0.07637158,0.020909818,-0.049109586,0.060285803,0.075620726,-0.05251397,-0.019528294,-0.032574926,0.052455816,-0.07539887,-0.032995667,-0.057577394,0.003224409,-0.025392149,0.013881302,-0.04840764,0.04126903,-0.06289964,-0.060705543,-0.03568926,0.011913675,0.10185611,0.0075803935,0.043133587,0.07904634,-0.035016857,-0.069292374,-0.0071092127,0.08503309,0.071192786,-0.05794616,0.04632966,0.07436413,-0.069600575,-0.06903899,0.06873713,0.0040810583,-0.014915164,-0.03761218,0.064262606,-0.058322586,-0.05350785,0.11440033,0.049278848,-0.0125100445,-0.10046798,-0.06316469,-0.08779456,-0.067804225,0.057541758,-0.041035943,-0.023684315,0.010791548,-0.041055713,0.0699233,-0.030891193,0.022288986,-0.007661364,0.046713322,-0.0781995,-0.03342645,0.050284877,0.040993046,0.060695592,-0.051001467
Aestri_Yazar,-0.049001016,0.05254064,-0.061902866,-0.06391703,0.020683061,-0.007481725,-0.08095689,-0.053652454,-0.04109013,-0.04700056,0.06539662,0.027139498,-0.03113227,0.08343831,-0.024003353,0.032884687,-0.038199153,-0.030113157,-0.061963867,-0.014675618,0.08953547,-0.051742386,-0.029227635,-0.0990228,-0.06727712,0.08188768,0.017721772,-0.013657296,0.03498286,-0.054476447,0.023494171,-0.08607182,-0.025663067,-0.060757805,0.021793174,-0.068774365,-0.048153933,0.093327686,0.08201119,0.06743899,0.04386206,0.0013418682,-0.08809449,0.039912138,0.030978214,0.07382659,0.0037680287,0.05426108,0.05446825,0.029586505,-0.055350684,-0.06316772,-0.048319682,-0.039739024,0.088639595,-0.053563915,-0.04997952,-0.026296897,-0.07261745,0.07092115,0.08014052,-0.00599337,0.043080572,-0.025523739,-0.04331272,-0.00078444014,-0.0032846925,-0.023859315,0.063681364,-0.05741311,-0.042061202,-0.06888521,0.03547803,-0.055951424,0.032997236,-0.091096655,0.03278866,0.04869191,0.026059674,0.013442911,-0.046080418,0.0522222,0.058600612,-0.073612384,0.08864208,0.041064907,-0.02721109,-0.07006769,0.026640438,0.014033667,0.030744843,-0.047172688,-0.07873577,-0.023700515,0.0022333295,0.1021241,0.0033535666,0.04246112,0.03793559,-0.003384812,0.023057561,-0.052465905,0.07017531,0.025433276,-0.065997414,0.0019992432,-0.015536348,-0.0545768,0.003997436,-0.0671452,-0.016886065,-0.007807487,-0.05440646,-0.018465972,-0.06069177,0.050816398,0.030225081,-0.04653063,-0.022855615,0.0057534394,0.064113416,-0.010521931,0.03418435,0.04484681,-0.05684981,-0.041513227,0.059317745,0.046074994,0.046575736,0.029173156,0.05538647,-0.022528159,0.0069362023,0.03168309,-0.041689582,-0.02696922,0.014610675,-0.021536583,0.09227713,0.0031061696,-0.03782981,-0.010531823,0.011661287,0.0044305217,0.00475907,0.016982727,-0.0050811735,0.010544724,-0.04811855,0.040186092,-0.008465569,-0.019239534,0.03592118,0.027158817,-0.0034543069,-0.04327682,-0.061060466,-0.018749457,0.020425795,-0.05830274,0.031953327,0.041612923,-0.009325794,-0.042847,0.02813385,-0.076242186,0.00812217,0.022435527,-0.030665506,-0.026482271,-0.046370238,-0.026416065,0.004464831,0.030394109,-0.083150744,-0.08596571,0.008298407,0.086861506,0.019605448,-0.08053877,-0.080779225,-0.00873972,0.035712134,0.06923034,-0.08739646,-0.04557978,-0.071080014,-0.01760649,-0.04741119,0.0029369008,0.06747245,-0.0054199817,-0.06246204,-0.06657536,-0.017784009,0.011957042,0.024053575,-0.03277799,0.030439204,0.008989436,-0.03835931,0.047632854,0.10466479,0.009996718,0.0053432714,0.075617515,-0.030566199,-0.0688959,0.01575543,-0.11132946,-0.012076565,-0.0037431144,0.037561357,0.057493787,-0.029601753,-0.0057843816,0.08475752,0.03630082,0.10003442,-0.069258265,-0.0904163,-0.00952752,-0.08181184,0.028167576,-0.10313521,-0.026275387,0.0013097441,0.07805298,0.042670716,0.037566353,-0.055356313,0.06053245,-0.075603716,-0.056449383,0.0014445856,-0.08514735,-0.04168936,-0.011924508,0.004054212,0.043867577,0.023342572,-0.104247324,0.04398365,0.004756038,0.034811027,-0.051522564,-0.0042691724,-0.04478506,-0.065586574,-0.05565803,-0.0076847086,0.067745306,-0.019708883,-0.05496161,-0.050358392,0.00877389,-0.0541627,-0.006841628,-0.04425831,0.044923928,0.08650281,-0.07020498,0.019505393,0.10329318,0.061476313,0.074428044,-0.033756085,-0.044044297,0.076158844,0.033243865,0.01939961,0.027844446,0.063518174,0.0958746,0.05686063,-0.081730455,0.033564903,-0.041806065,0.025012093,-0.08921784,-0.014380451,-0.057022993,0.040512793,-0.067743264,0.0330481,-0.020215468,0.042585004,0.04437481,-0.03478816,0.08080374,-0.03926931,-0.054635845,-0.08251448,-0.024694437,-0.046393648,0.062248632,-0.03684309,0.031086717,-0.067807645,0.0063501694,0.014154257,0.0462532,-0.08935882,0.03364468,-0.047732964,0.06999849,0.04642711,-0.050798412,-0.006950648,0.007591566,-0.0028620888,0.028823234,0.091795534,0.0018018765,-0.0022753538,0.0111477515,-0.007723396,-0.0480935,0.015758803,0.045549225,-0.009763158,-0.04042965,-0.07439226,0.053866632,0.07613266,-0.08188351,-0.04021581,-0.016328266,-0.050370187,-0.0497616,0.044710677,-0.016139226,-0.044198234,0.0008309419,0.020307686,0.047784027,-0.0125241885,-0.009813038,0.07756511,0.09982455,-0.091828376,-0.0025516914,-0.046373773,0.016378203,0.018157547,0.059582587,0.05438708,-0.02846108,0.011819162,-0.0295516,0.06986462,-0.08504821,-0.01934711,0.017903043,0.021479571,0.0602856,0.09854626,-0.017173527,0.044299036,0.00033459364,-0.070284784,-0.08501948,-0.029845182,-0.04553862,-0.0012623258,0.031357184,-0.073775746,-0.06493906,0.059409656,0.059130102,-0.045532137,0.0063092518,-0.0642689,-0.06490924,0.08379089,-0.005722203,-0.006664426,0.0340617,0.04736331,0.051205818,-0.024709404,-0.07971769,0.021647362,-0.06458186,-0.017861469,-0.07675625,-0.008403339,-0.03220231,-0.04186424,0.0038584543,-0.020432744,-0.016911441,-0.03154563,0.048502997,-0.05681008,-0.026530504,-0.031180784,-0.035274193,0.06010394,-0.015177635
Aftercare,-0.048894312,-0.04244393,0.081481226,-0.039117254,-0.010664334,0.0051946063,0.009768241,0.0515491,0.0651678,-0.058586046,-0.021941071,-0.052467998,0.026468515,0.09254804,-0.04222804,-0.069182776,-0.036306523,-0.08510522,0.0747018,0.0011567738,-0.07347476,-0.034704935,-0.044825632,0.06828603,-0.0066636116,-0.028558282,0.0004888939,-0.054294147,-0.075801425,0.0013546173,-0.06207567,0.008507404,-0.03880273,-0.0424057,0.048088275,-0.0059728944,-0.04883149,-0.106888786,-0.067883365,-0.07782643,-0.04152004,0.06871442,0.0076336088,-0.028165963,-0.05139713,0.052680958,-0.041556455,0.03175927,0.05546209,-0.07567604,-0.0077523356,0.07182767,-0.057205927,-0.08991965,-0.054174997,0.04809849,-0.015966997,-0.0029015741,0.014705681,0.010530588,0.028045451,0.06671973,0.06130593,-0.01911831,-0.096084625,0.05511716,-0.007821593,0.075395636,0.0195004,-0.08316885,0.053813025,0.0109498445,0.06341921,0.04569011,-0.055343967,-0.05075675,-0.00869332,0.06888034,0.03121708,-0.020960739,-0.05139157,-0.01485666,-0.00089939823,-0.05785725,-0.019733137,-0.017853497,-0.0097217765,-0.04788176,0.021165783,-0.0760767,0.06053916,0.036234483,-0.038524784,0.019481042,0.028843323,0.018871471,0.006373322,0.008769206,0.032151546,-0.083356746,-0.04003592,-0.061706506,0.06679549,-0.06941141,0.043576397,0.052083794,-0.04345278,0.027731337,-0.05671519,-0.061425757,-0.07104426,0.0048301504,-0.05375964,0.012654798,0.08136214,0.036493495,-0.035899967,-0.08266904,-0.0026930755,0.054819163,0.07446448,0.046322983,-0.04078749,0.011500893,-0.028364198,0.06438539,-0.017211227,-0.029822113,0.05502392,-0.01722057,0.029883357,0.027757222,0.0014177168,-0.029849365,0.019824369,0.05899096,-0.03066353,-0.016046412,-0.030021442,-0.0694348,-0.032599628,-0.004525081,-0.047990263,0.09456128,0.031101393,-0.05198832,-0.06418241,0.036249842,-0.03094253,-0.028029118,0.03073973,0.039236214,0.06899874,-0.030420313,-0.04236602,0.08534849,-0.032597285,0.009542849,0.022722645,-0.0054961266,0.075021334,0.0014099983,0.0032667536,-0.029063517,-0.06441982,0.009941336,0.030043356,0.07419015,0.05638236,-0.06642806,0.08093975,-0.008501899,-0.050971743,-0.056404285,-0.01059931,0.045813825,0.059529345,0.03112746,-0.060450174,0.058230378,-0.0743043,-0.04050528,0.09805157,0.02508697,0.029668406,-0.022404386,-0.018116757,0.053016648,-0.026217995,-0.06622253,0.06562886,-0.05592334,0.05465708,-0.024913304,-0.073663116,-0.01754477,0.009741173,-0.044358023,-0.076277435,0.030536504,0.020555321,-0.028345643,0.046224527,0.027526783,0.04738457,-0.02684882,0.024155697,-0.042790476,0.02119343,0.09150505,0.055116296,0.081484266,0.074551046,0.042209577,0.05106026,-0.06935083,0.0583476,-0.0036962829,-0.03600732,-0.0012683782,-0.013132579,-0.023599619,0.0014312242,0.029342499,-0.015845107,0.032579128,0.03834287,0.04663052,-0.06946111,0.03964603,0.014360362,-0.08305277,-0.04346903,-0.066453554,0.016443761,0.019383589,0.022732312,-0.06001916,0.025257796,0.03395337,0.042434413,-0.0474353,-0.06460184,-0.058973294,0.047178514,0.044890013,0.036767166,-0.058747783,0.050754838,0.043470383,0.0054958803,-0.03389023,-0.034560796,-0.02153238,0.025037533,-0.02942713,0.0038451424,0.037645366,-0.065451965,0.020099338,0.045639396,0.071467824,0.006812059,-0.042471055,-0.029733935,-0.063534245,-0.0024076551,-0.029585619,0.016025482,-0.06379442,-0.06907772,-0.033502866,-0.03777187,0.012582849,0.094139926,-0.084913984,0.032893088,0.039474532,0.032241784,0.00077344634,0.024503028,-0.052060127,-0.07741369,-0.016365295,0.075521976,-0.06362864,0.031216776,0.05760215,-0.041502267,0.04625355,-0.029730732,-0.076279886,-0.039420467,0.043518536,0.058658328,-0.08607081,-0.076950155,0.07411044,0.046085503,-0.02865279,-0.019682655,0.019585226,-0.00021419843,0.03775455,-0.057464134,0.053754587,-0.060455263,0.029405253,-0.06452041,-0.09208858,-0.04506641,0.09007723,-0.056166105,0.058811918,-0.016505677,-0.046251323,0.08624119,0.038252115,-0.04018047,-0.05719038,0.012796272,0.089078434,-0.06728546,-0.011850883,0.0070585734,-0.041574866,-0.059685532,-0.03134555,-0.0744563,0.012396717,0.04448441,-0.0024218808,0.03607952,-0.0024726342,-0.055870507,-0.050320614,0.0418098,-0.03697401,0.0047760503,-0.053559396,-0.013036064,0.020726882,-0.0440348,-0.017325344,-0.01653319,-0.043248035,0.05001427,-0.05491652,0.0006511451,0.012335737,-0.007891412,0.019554028,-0.032137524,-0.05440584,0.049479645,0.050415095,0.02888319,-0.00699831,0.031807482,-0.018516742,0.03320263,-0.039744504,-0.010188836,-0.021463022,0.034000173,0.045889314,0.08289853,-0.058694094,-0.08802826,0.0082944315,-0.09070061,0.08364097,-0.059654623,0.077979766,0.039901376,-0.077436246,-0.0065447213,0.0056793396,-0.058763728,0.030919813,-0.09716804,0.041125815,0.05106161,-0.0398716,-0.000579795,-0.058926094,-0.047291987,-0.084205925,0.067200154,0.019896384,0.042197548,-0.03272944,0.04215509,-0.013557421,0.019318067,0.044936784,-0.009904622,-0.08445145,-0.045509595,-0.07826547
Agitation,0.07688742,0.08434848,-0.09023749,0.09030157,0.024742527,0.08543452,0.04623524,-0.07699161,0.03524798,-0.03567376,-0.08803677,-0.04580463,0.0062851715,0.06123377,0.057892185,-0.09180213,0.036955774,0.015575542,0.054504912,0.026983075,-0.06986019,0.08968611,-0.06905121,-0.04701579,-0.023927126,-0.0144501105,-0.01825783,-0.07264974,0.05939654,-0.022576656,-0.061166268,0.08425963,0.031359337,0.018398104,0.08488699,0.020165714,0.004975641,0.08228694,0.07806735,-0.104956314,0.039880738,-0.067878656,-0.07839641,0.03188908,-0.025124405,-0.05422291,0.0061730263,0.03244827,-0.008326083,-0.09714299,0.04758234,0.077538244,0.050883938,-0.05451169,-0.0643918,-0.058340423,-0.04944227,0.011732833,0.050725587,-0.0698599,-0.06373717,0.08976395,0.063625574,-0.07154244,-0.054992463,0.026699504,-0.07876965,0.09081281,0.053325377,0.06815401,-0.013799099,-0.0007803017,0.04824659,0.08027744,0.03805533,0.08619913,0.022634558,0.0185252,0.08140589,-0.012368031,0.05192339,0.075507954,0.07034693,0.08833375,0.072699435,0.029264549,-0.021296065,0.049866427,-0.052623443,0.057711385,0.02826698,-0.073584676,-0.0015414467,-0.054349963,-0.06784537,0.08612157,0.035667237,-0.015096358,-0.042444475,-0.05800744,-0.0959957,0.027956463,0.05868929,-0.09243356,-0.014288256,0.056240115,0.0110463,-0.047791,0.05552668,0.052038983,0.03480658,-0.001180256,-0.06397042,0.07346847,0.09752434,0.031369653,0.082999684,-0.0080272015,-0.068390295,0.020432249,0.07477928,0.032900114,-0.03630827,0.050673313,0.043912753,0.06707907,-0.0038611095,-0.058031127,0.009701716,-0.039246913,0.052605808,0.02179705,-0.007982776,-0.0032898285,-0.0065184683,-0.050215162,0.05734321,0.032447573,0.04551198,0.06522556,-0.071464084,0.032842122,0.020361498,0.0439131,-0.0024195258,0.07420455,-0.027904859,-0.08453937,0.014059657,-0.044153366,-0.023062643,0.10238251,-0.0042998716,0.06334754,-0.021338165,0.06011558,-0.03834109,0.05099947,0.06335152,-0.011513162,0.054705888,-0.07390056,0.002679015,-0.022175942,-0.021373453,0.10448249,-0.07045464,0.018067347,0.030096376,-0.082953244,-0.06177731,0.060085982,-0.10574856,-0.09185892,-0.034450024,-0.051892016,-0.024791954,-0.036964532,-0.04720904,0.0036334563,0.088509575,0.06998375,-0.0672819,0.025823636,0.045881093,-0.053821415,-0.03414885,-0.029335964,-0.024290815,0.043242678,-0.080788866,-0.020799784,0.04048595,-0.068085946,-0.055727273,0.03666115,-0.013760088,-0.0471461,-0.014869577,0.006999961,-0.07822219,0.08377172,-0.07286328,-0.009192601,0.008071207,0.048052937,0.071287826,0.049291812,-0.045840546,0.09037241,-0.024331978,0.07194778,-0.07493282,0.03927418,0.098234884,0.032759566,0.06988111,-0.025923023,-0.012963078,-0.076108396,0.018277489,-0.034159593,0.0918486,0.0054369904,0.040979203,0.011127909,0.05001236,-0.047117393,-0.057780463,-0.024083981,-0.0077262856,0.04133112,-0.023090081,0.038945306,-0.0067325416,-0.016870877,0.040256515,0.041514568,-0.036884073,-0.070852526,-0.05279597,-0.044758514,-0.0011002583,0.043759726,-0.053811383,0.060616024,0.045039847,0.061698556,-0.09384273,0.06546599,-0.0946247,0.0192136,0.04702415,0.059054505,0.0664581,-0.016599562,0.052038867,0.04135786,-0.036457237,0.003217827,0.0015988472,-0.03774857,-0.016555287,0.077442,-0.06834672,-0.029344039,0.044102434,0.027773254,0.019171583,-0.005964153,-0.07456769,0.050429624,-0.079083614,-0.05106207,-0.030476572,-0.061832182,-0.055172063,-0.05076619,0.023711808,0.07727848,-0.08274089,-0.061752316,-0.013745581,0.028694613,-0.011714382,-0.0057820855,0.030800411,0.038655605,0.049854085,0.049039435,-0.026943175,0.027319252,-0.082671165,0.08376386,-0.029041905,0.050280225,0.0067354124,-0.0065915524,-0.04731618,0.060641382,-0.00095796335,-0.05323537,0.07133812,0.0031845677,0.05963987,-0.03901419,-0.0147455605,0.073770575,-0.03867755,-0.08948187,0.08367698,0.04816027,-0.045049064,0.035170082,0.060802463,0.023345193,-0.0026095328,0.05707592,0.008633346,-0.08206336,-0.06276345,-0.03683017,0.04558754,-0.05510386,-0.04832342,-0.014222489,0.073488384,-0.05732173,0.020409392,0.07373679,-0.0072636325,-0.0024564764,0.07854527,-0.020068,0.07931647,-0.053778864,-0.075785846,0.08976459,-0.03667531,-0.010153811,0.058751244,0.04418206,0.05075083,0.0110056065,0.013523627,0.027886882,-0.05704551,-0.100343324,0.0702414,0.067453936,-0.0015166104,-0.07006631,-0.06653714,-0.011790508,0.051095672,0.07938067,-0.09999402,0.040186707,-0.08238953,0.037550032,-0.045296863,-0.013553321,0.06682994,0.07262534,0.07395855,-0.0021687457,0.0039878474,0.05613012,0.053435907,-0.048970733,-0.054456174,0.014500694,-0.01665182,0.06888031,-0.019983953,0.015702927,-0.057340987,0.077978946,0.085041694,-0.079594366,0.0331197,0.03788789,-0.055572864,0.048374612,0.07109093,-0.054022085,0.04490305,-0.098461546,0.014205189,-0.026821949,-0.091455944,-0.07779332,-0.022031844,-0.025841843,0.023800738,-0.06076023,-0.001563652,0.031171845,-0.039884824,-0.012535474
Alan_Wake,-0.048408747,0.039774034,-0.09682597,-0.03145931,-0.07000035,0.07137401,0.012893359,0.05313257,0.005665118,-0.065355204,-0.023060981,0.03316819,0.06359175,0.012526852,0.08249799,-0.015910884,0.07030868,-0.09325388,0.05893446,0.09075035,-0.02570364,0.028505217,-0.080375575,-0.08378657,0.07985304,0.058845807,-0.056045104,0.023877835,-0.06285031,0.09147009,0.0043896036,0.01091394,-0.011139892,0.02130961,-0.012815266,-0.059008613,-0.057000756,0.06255353,-0.021977765,0.08015085,0.015855905,0.068799496,-0.080029115,-0.10408335,0.078389265,-0.036962993,-0.0032065734,-0.023173876,-0.024399629,0.061650336,-0.08433972,-0.06828728,0.031300455,-0.0202804,-0.01963089,0.022851352,-0.07235405,0.019834734,0.02068148,-0.05467853,-0.04042008,-0.067067645,0.0626075,-0.074095234,0.04122302,0.051305242,0.023997225,0.0234381,-0.048996817,0.052000914,0.011843344,-0.029523905,0.06793183,-0.06917969,0.0067321393,0.05616086,-0.061077878,0.07447361,-0.062528335,0.08443818,-0.054886494,-0.05301011,-0.09706729,0.03677699,-0.03341717,-0.055047467,0.038950477,0.07312262,-0.055721663,-0.014272092,-0.024762675,0.08589876,-0.08240141,0.07876205,0.017523332,0.060577784,0.046440728,-0.011305265,0.02824467,0.038115203,-0.04551947,-0.089876235,0.0015570505,0.087175004,0.06441635,0.020036235,0.06168432,-0.06681067,0.06714189,-0.0028251035,-0.01739526,-0.09460298,0.05558327,-0.074553765,-0.066452116,-0.036278915,0.05231195,0.0230124,0.06538809,-0.061342563,0.026512012,0.042647418,-0.033126995,-0.0032632682,-0.04211526,0.06513385,0.032694858,-0.031186206,0.0467918,-0.0047917664,0.073113225,-0.040988397,-0.069749735,0.058227807,0.09793196,-0.08468162,-0.06404932,0.009043218,-0.042730514,-0.03472966,0.062101044,0.07487125,0.06270868,-0.03518301,-0.020025237,-0.026204307,0.0895454,-0.055253882,-0.05319686,-0.050975945,0.068338014,-0.06542857,-0.10087304,0.041613396,-0.013856517,-0.08002201,-0.020535393,-0.028566925,0.024987912,-0.025149934,-0.02936046,-0.028173314,-0.083408035,0.018389665,0.05892921,0.005276815,0.0077000502,0.06408327,0.0002435757,0.056106754,0.031278856,-0.056875564,-0.016715746,0.085443646,-0.0120114945,0.044308152,0.06267238,0.054507665,-0.013604483,0.01640895,-0.0683965,-0.042244315,-0.009842433,-0.051758368,0.014304733,-0.04754408,-0.017478136,-0.06680164,0.029292861,-0.015530097,-0.057078566,-0.06687336,0.0679425,-0.0072040805,0.050534215,-0.06545572,-0.0032492646,0.019209372,0.029251799,-0.04591073,0.051612005,0.011285842,-0.0020589144,-0.045127194,0.08445446,-0.036062896,-0.0432466,-0.012730526,-0.0503747,-0.082747474,-0.08207371,0.08613831,0.04345344,-0.07409024,-0.00070503744,-0.096818805,0.048678573,-0.088484086,0.07099303,-0.050818324,0.08231423,0.011504778,-0.01716468,-0.07088909,0.05773708,0.04863102,0.008289565,-0.0005706189,-0.01983572,0.06708635,-0.05980065,-0.01261956,0.035648137,-0.02784806,0.060974285,-0.0067201555,0.06460349,0.013311697,0.057275288,-0.05856509,-0.05768336,0.05147147,0.07926468,-0.023669258,-0.027446501,0.056631938,0.030763501,-0.06369438,0.0917711,-0.022756288,0.07240059,0.011223644,0.01671599,-0.066578865,-0.064223364,-0.0660481,-0.014960412,-0.044475462,0.0015991055,-0.051966056,-0.0046267766,-0.057083726,-0.08859915,-0.02736808,-0.058157127,-0.07149918,-0.03100068,-0.053575754,-0.02744087,-0.025046011,-0.04521718,0.06411387,-0.00036818706,-0.07186674,0.0012189614,0.060137007,0.059952978,0.05594184,0.024299715,0.050999347,0.09022442,0.0015698079,0.0109342085,-0.096029304,-0.015684944,-0.02864098,0.04152121,0.10297295,-0.035899255,0.013409526,-0.008852932,-0.06320622,0.046930496,0.023043541,-0.05898016,-0.062182352,0.0554734,-0.030592166,-0.021242356,-0.014677866,-0.03669086,0.038677137,0.060142122,0.036015186,0.068105094,0.031577352,-0.08581191,-0.031851746,-0.06896255,0.038439784,0.07547065,-0.00780733,0.035151187,0.04711822,-0.05849977,0.0038752267,-0.09357806,0.0062019224,-0.10012907,0.060672674,-0.06298555,0.07186138,0.009017687,-0.033069067,-0.079147376,-0.068654224,-0.016329184,-0.045469232,0.01556004,0.0072167106,0.068219915,-0.040106483,-0.070935324,0.0815325,0.06256558,0.06508888,-0.016386164,-0.027467113,-0.028600743,0.075588524,-0.029275572,0.010386298,0.039926797,0.043027252,-0.062356625,0.016867105,-0.0076741655,0.022664579,-0.070916705,-0.008153042,-0.07834326,-0.01503775,0.01033656,0.04668387,-0.031000167,0.041600175,0.046346564,0.007524085,0.071658015,-0.009269759,-0.05859256,0.014316802,0.0919119,-0.062819004,-0.07288625,-0.099899545,-0.0130163245,0.061433185,0.07503088,0.042489428,0.04931452,-0.092091784,0.049959194,-0.011449646,0.061485942,-0.027484333,-0.07468471,0.0697138,0.04284591,0.073491186,0.061843835,0.051829457,0.017837025,0.010672081,0.06560327,0.057527043,-0.062360972,0.017532187,-0.047041994,-0.07810799,0.054902047,-0.015686084,-0.094819315,0.008383095,0.034054138,0.07585142,-0.08844462,-0.09175536,-0.0010466726,0.089459345
Alert,-0.07269192,0.06732929,-0.028522313,-0.06292588,0.040722407,-0.09871745,-0.03682934,0.02495866,0.059378393,-0.06555462,0.002319394,0.08280908,0.019762572,-0.06576568,-0.040519994,-0.0670983,0.043579053,-0.0547649,0.024773065,0.043647796,0.070942596,0.011299196,0.026765509,-0.08684441,-0.0356828,-0.025309192,-0.020647174,-0.0601413,0.08921212,0.057461828,0.09813898,-0.053734012,0.058533765,-0.07051983,0.026240569,-0.066248335,-0.0050027464,0.029700555,0.074174926,0.013599052,0.059038453,-0.046120893,-0.08094161,-0.03219237,0.03550273,-0.01584914,0.014446482,-0.03636684,0.040280625,0.0939984,0.02094014,-0.082567245,-0.004904007,-0.06501259,-0.057340853,-0.0066580107,-0.084696785,0.08326347,0.051469117,-0.08709051,-0.041570548,-0.01854116,0.062660724,0.041267708,-0.008828232,0.07073252,0.0331675,-0.017286208,0.08053171,-0.039775945,-0.029391782,0.0017270063,0.0038372483,0.03863144,-0.032775916,0.0051671807,0.0065662144,0.04848172,0.08337444,-0.06789499,-0.0034535835,-0.05590042,-0.05387208,0.017499082,0.0060609183,-0.06526141,-0.003912024,-0.060958236,0.074770294,-0.01993748,0.05928177,0.0029498462,0.050592925,0.036629613,0.027472997,0.06386892,-0.045840286,-0.061326493,0.035937075,0.056900352,-0.054816037,-0.09987377,-0.03993556,0.071233034,-0.02750693,-0.016993992,0.08764526,-0.071903616,-0.012936019,-0.014473331,-0.06288028,-0.03627332,-0.044124708,0.0848107,0.06909278,-0.047198694,-0.053187344,-0.03327881,-0.087456115,-0.057290677,0.03787026,0.042922005,0.071490265,0.061685286,-0.08617191,0.074833624,-0.05419388,0.0040506963,0.052390944,0.019263959,-0.06446463,0.07165723,-0.0006328996,-0.046456743,0.0659323,0.06385013,-0.08272376,-0.06320546,0.041069794,-0.0214358,-0.02501335,-0.024506718,0.049870905,0.013586547,0.052959375,-0.086780086,-0.03468801,-0.034200046,-0.023636281,-0.053236276,-0.0012361684,0.040150974,-0.069340505,0.016465664,-0.0123406015,0.024338987,0.020806586,0.011705545,0.0065891165,-0.08481539,0.054203033,-0.023857025,0.038238417,0.061249528,-0.049278464,0.035213925,-0.079586774,-0.039143488,0.030987192,0.025160125,-0.009725847,-0.0036898819,0.10084187,0.002550079,0.042168822,-0.037290066,0.008422321,-0.00985768,-0.02148355,-0.09403526,-0.058096938,-0.05933809,-0.02266614,0.01805353,-0.008475486,0.06522114,-0.026565826,0.00044193878,0.07124521,0.04522189,0.047788374,0.07504503,0.07515958,-0.07723852,-0.05171348,-0.0796188,0.008394048,-0.060740788,0.011026512,0.07928205,0.015697083,0.03321333,-0.03446575,-0.016106548,0.07786091,-0.026367167,-0.041796636,0.06416036,0.04224255,-0.0674914,0.03083648,-0.018732136,-0.06967597,-0.042998966,-0.0032904872,-0.0012892332,-0.03706931,-0.020177696,0.0023089382,-0.019566054,-0.05712857,0.08150792,0.04252765,-0.052683424,-0.041374434,-0.05404221,0.08577266,-0.06961968,-0.041091762,0.07627217,-0.03857967,-0.048460793,-0.0295181,-0.08114858,-0.011655152,0.08403151,-0.045771528,-0.010595218,0.08414975,-0.06837874,-0.008590395,-0.025924468,0.047469135,-0.08115305,-0.00060320436,0.072768226,-0.01039175,-0.026239134,0.07821069,0.024371315,0.06761817,0.015492017,0.050801683,0.060163934,0.05510642,0.000978449,0.07910119,0.078389645,0.063511975,0.040110722,0.07076536,0.100665815,0.004897539,0.00036527545,0.016188523,0.04055476,-0.057748117,0.07635263,0.020518977,0.033140298,-0.033386916,-0.09291494,0.09586273,-0.077380635,-0.021922935,-0.016068563,0.030001452,-0.015768085,0.032632187,-0.034253072,0.04615405,0.048763316,0.08677863,0.07465377,0.060935963,0.054366667,-0.017670399,0.074689515,0.07524256,-0.034226775,0.03571434,-0.001262762,0.011596163,-0.09070881,0.011577106,0.02432895,-0.09346186,0.077382036,-0.025354484,-0.023354437,0.07969331,-0.08566258,0.04746406,-0.019896032,0.058326975,0.0015356157,-0.033361737,0.015078033,0.0018695466,0.06984151,-0.0062038973,0.07105631,0.044353876,-0.009190788,-0.06027767,-0.05018716,0.03162689,-0.048667904,-0.0011450631,0.008448759,0.009671727,0.064895995,0.007778585,-0.086921394,-0.039273918,-0.008611783,-0.06839055,0.016066998,-0.017045926,0.08148009,0.01954054,0.086862646,0.04940635,-0.064301215,0.059795674,0.0044142357,-0.06616108,-0.049642228,-0.0032632288,0.0592755,-0.0012167153,-0.026014855,0.039177727,-0.029745603,-0.06300102,0.029000195,-0.054376367,-0.06936592,0.016356349,0.022054024,0.06570308,-0.029526113,0.043059874,-0.08026349,-0.024127223,-0.050744914,-0.027586514,0.004260277,0.03524635,0.021523887,0.05578742,0.048973344,-0.022232622,-0.09373651,-0.009619219,-0.081513815,0.03346103,0.020106563,0.04027514,-0.062339675,0.03985779,-0.00705495,0.005924305,-0.02690954,0.030526483,-0.058970127,0.03159153,-0.009407823,-0.002182656,0.07574559,-0.03733057,-0.08728021,-0.041435126,0.03330626,-0.0014730442,0.09348606,0.08106155,0.033803515,0.028627545,0.04790058,0.002810369,-0.03750224,-0.05343169,-0.060293816,0.061577924,-0.09877262,-0.082585245,-0.06479346,-0.08170662,-0.068094514
Alien_Instinct,0.039282944,-0.06352237,0.054849714,0.086213455,-0.04920678,-0.051439945,0.045595426,0.0036411793,-0.02238432,0.061842352,0.041052103,0.0409832,0.04099778,-0.073215194,-0.039123807,-0.00747684,-0.056920793,-0.0773643,-0.047989268,-0.010453335,-0.027204229,0.019569524,-0.07693092,-0.067958966,-0.09063825,0.042517703,-0.025628323,0.05182951,-0.008281402,0.028598698,-0.027527018,0.06434215,-0.018742144,0.06721092,-0.08717445,-0.07099044,-0.024500525,-0.044900432,0.019857666,-0.071681455,-0.05394639,-0.039003335,-0.06661996,-0.054994173,0.00023595181,-0.03532365,0.044734336,-0.0004104868,0.007078309,0.006213757,-0.0040025515,0.06829734,-0.0004511574,-0.032503005,-0.04179937,-0.10122169,0.09287718,-0.018535174,-0.06806748,-0.044475827,-0.04278883,0.01408369,-0.05568842,0.033504892,0.06942451,-0.05952617,-0.07752287,-0.015532509,0.055018727,0.08483401,-0.0011072922,-0.07204726,0.02729974,-0.047940835,0.050764106,0.08408508,-0.060368687,-0.006523755,0.020393511,0.050428793,0.068008825,0.010569322,0.030511327,0.02956875,-0.061376378,-0.013764581,0.08851414,-0.05888812,-0.09329634,-0.0039193123,0.03819753,0.0011434451,0.035231244,0.06109541,0.03558123,0.014250924,0.042668484,0.013309135,0.04914018,-0.07378675,-0.06365413,0.007860616,0.008780625,0.07023103,-0.074068815,0.07480225,-0.08649718,-0.068096034,-0.063183114,0.014755026,-0.0144426655,0.025927175,0.013123586,-0.04589575,0.044028554,-0.0028766359,-0.037449148,0.069055974,-0.01847519,-0.0509437,-0.011733817,0.033083934,0.053204354,0.0072010015,-0.038146056,0.03641597,-0.059991404,0.0026948575,0.012396443,-0.012209052,0.01072242,-0.017557546,0.0063781017,-0.069200605,0.077776454,0.085100874,-0.0069828546,0.031535134,0.018525338,0.041506372,0.0513212,-0.02560698,0.03983273,0.027847635,0.045158595,0.027443025,0.014982873,-0.056763835,0.018629216,0.029846434,0.041357443,0.02969856,-0.043322638,0.03568672,0.046648744,-0.03380394,-0.050930254,-0.06661258,-0.031264864,-0.04594158,-0.058007542,-0.05763224,0.048715394,0.029681448,0.024604259,0.08681877,0.06432678,-0.07754517,-0.08721491,-0.06538094,-0.07110489,-0.05336674,-0.053024642,-0.084852256,0.061486505,0.018807959,0.062775694,-0.061412483,-0.0020860832,0.05320585,-0.06105887,-0.046587355,-0.04468984,-0.02418856,0.09376041,0.052864205,-0.0065929163,-0.006235176,0.05241711,-0.039112397,0.038151924,-0.032765474,0.046355367,-0.051579524,0.03725492,0.008710934,-0.041154716,0.021958685,0.006799087,0.014372814,-0.06744588,-0.0066769063,-0.01320101,0.04596506,-0.028349705,-0.009009759,-0.07767654,-0.015629683,0.09271928,0.052354828,-0.002920737,-0.0030239322,0.045717165,0.010761707,0.0032385797,-0.0017235569,-0.0028304441,0.081094384,0.0037549401,0.06248294,-0.05071102,0.09431612,-0.009904057,0.011391487,0.02974982,-0.06632994,0.05796436,-0.072590865,0.015269784,0.044148587,0.0002986593,-0.057870675,-0.04846418,-0.07911625,-0.009446066,-0.037276465,0.069620594,0.017605666,0.07622908,0.072590895,-0.08271176,-0.023963002,0.027906252,0.0076173027,0.0039799386,0.072817355,0.048026077,-0.05889952,-0.050189957,-0.0011241764,-0.09277464,-0.017834615,-0.07642026,0.017075893,0.033833876,0.06665329,0.02681673,-0.09121693,0.059715252,-0.061419293,-0.04067175,0.0052182805,-0.042755738,0.03920188,0.09747147,0.014676224,0.06735379,-0.07351149,0.009527339,-0.060821276,-0.009380836,0.03849789,-0.07904101,-0.06646269,0.030409466,0.009045078,-0.001205564,0.03949255,0.016759632,0.080312654,-0.019727502,-0.0052325963,-0.04273847,0.029880434,0.0024104589,-0.013172228,0.022159306,0.05102393,0.03190266,-0.067992926,-0.07338942,0.052169472,0.031063454,-0.06088643,0.025026683,0.06376456,-0.051310357,0.052122075,-0.08854898,0.034905385,0.03610864,-0.025758505,0.053401276,0.041105755,-0.045060836,-0.032836806,-0.021614738,0.066740535,-0.026117856,-0.0637322,-0.060458772,-0.070918635,-0.08212596,0.0028911135,0.016391521,-0.07374921,0.046106983,0.06354697,-0.074875504,-0.091346934,0.08275688,0.07247331,0.06847527,0.054478314,0.089183666,-0.021090196,-0.008826395,0.030726979,0.046570122,0.087420546,0.040483717,-0.0011177015,-0.005978533,-0.04776644,-0.08205688,-0.036128677,-0.022834806,0.053733096,0.0070472686,-0.000514539,-0.066174254,0.059275426,-0.05482662,-0.030347902,0.060812596,0.026329495,0.04170561,-0.06908864,-0.046123885,-0.055478297,0.051505566,0.07806547,0.034884844,-0.10286623,-0.036827628,0.0690651,0.06840727,0.043335102,0.0125949895,0.072937116,1.1174792e-05,-0.064139925,0.043207467,-0.054483574,-0.05059812,0.041162122,-0.0481229,-0.017692367,0.049832344,0.08227543,0.054918863,0.015763534,0.039182846,0.07705523,0.011113276,-0.070650145,0.07257381,0.042619877,0.06607401,0.016804354,-0.05150722,0.036065415,0.02801241,-0.015990125,0.013200139,-0.025863806,-0.07807424,-0.021954907,-0.040817957,0.038104143,0.005658219,-0.08394645,0.06197668,-0.0007265095,-0.029048748,0.021671884,-0.061467383,0.0007265636,-0.06312689,-0.10141575
All_Shaking_Thunder,-0.09535394,0.02235228,0.06731984,-0.05682861,0.021822765,0.08034953,-0.017564457,0.002249076,0.022943074,0.07347625,-0.07801698,-0.035272565,-0.0012875131,0.05347323,-0.070860736,0.049807288,0.023004934,-0.059720688,-0.049384646,-0.043837175,0.08045121,0.07456277,0.04530045,0.045404363,0.03203137,0.05454107,-0.036978833,0.032309573,-0.03159942,-0.055809166,0.056698527,-0.033014175,-0.06603521,0.040530797,0.006244553,-0.0643794,0.0999902,0.020764986,-0.049701422,0.013028306,-0.07018669,-0.018777989,-0.031465765,-0.09939655,-0.064140804,-0.055838738,-0.058159586,-0.025008386,-0.003751472,-0.08462194,0.04854318,-0.024654001,0.035329178,-0.022364642,-0.021488573,-0.05136844,-0.056413602,-0.02127467,-0.046014003,-0.09274462,-0.09401046,0.036519986,0.021523634,-0.029581644,-0.10079039,-0.047638435,0.07236478,-0.08073438,-0.035454217,0.03095441,0.03197267,0.045486994,0.08108462,0.06916309,0.022336705,-0.016147755,-0.030302344,-0.08867875,0.04141981,-0.04555143,0.076422945,-0.0036790206,0.03708101,-0.028614648,-0.006425408,-0.009013873,-0.011275687,0.047420733,-0.055278603,0.08831991,-0.04342068,0.030102944,-0.008296287,0.0283594,0.08028042,0.06501309,0.047687836,-0.046643477,-0.027350612,0.022614714,-0.031723235,-0.059468742,-0.041711252,-0.09357783,0.07413831,0.09550468,-0.09361658,0.005647681,0.034254685,0.019001573,0.007025197,0.09886951,-0.02608553,0.08941846,-0.031527653,-0.035857406,-0.014093386,0.032631252,-0.07207419,0.023485428,0.07741713,-0.067730345,0.064444974,0.030207196,0.060566477,0.054688986,0.06350882,-0.024943693,0.05715616,0.042826474,0.060279258,-0.040765937,-0.029813895,-0.0515943,0.012214269,-0.039511647,0.021347083,0.0694003,-0.07349518,0.015684178,-0.014602917,-0.06952294,0.02990681,0.046506565,0.061857283,0.060797237,-0.04781047,-0.0009779326,-0.053529583,-0.0020556496,0.03892785,0.10691667,-0.05458887,-0.069439,0.052267816,-0.06824768,-0.014607572,0.037204362,0.055275492,0.0012535519,0.0021174033,0.0038245402,0.034523472,-0.060920823,0.049739268,0.0140002705,-0.07296881,-0.10685996,0.0006126517,-0.008437229,-0.07744158,0.05885472,-0.0994251,0.06165748,0.028403977,0.055112883,-0.07266362,0.04113444,-0.043104302,-0.017725658,-0.029212166,0.081163354,0.0922285,0.017734133,0.017499497,0.021941511,0.07869202,0.02516696,-0.058190286,-0.097924694,0.04463953,0.015170004,0.0067574545,-0.00053487165,-0.040256515,0.08488394,-0.055748865,0.04096249,0.015086726,-0.060521573,-0.0697718,0.078993596,-0.039067168,-0.037136063,0.06499813,-0.023691954,0.025285596,-0.0029091614,0.07553902,0.004453302,0.049657382,-0.0035020546,0.020778177,0.035042312,0.104225,0.0003799055,-0.019971294,0.08642914,-0.058366977,0.07847451,-0.019917317,0.014917441,0.0008285166,0.0828438,0.03267351,-0.04423744,0.029854532,0.011048924,0.012027493,0.013251036,0.001992048,-0.09434541,-0.07842475,-0.027521675,-0.01322752,0.088025585,-0.057488706,-0.0064295125,0.017945008,-0.010195612,-0.07485635,-0.033945583,-0.004712948,0.09232672,-0.032235444,-0.0064950404,0.05099873,0.03524396,-0.011480667,-0.092080936,0.018401435,0.083436705,-0.060382284,-0.077257514,-0.048529707,0.035977032,-0.032476895,-0.05587295,-0.015991567,-0.055849575,0.053437598,0.035042875,0.022653993,0.06937376,0.07450782,0.067599215,0.026926378,-0.07880908,0.09068445,-0.07255665,0.04574501,-0.034362063,0.060499925,-0.0025388391,-0.051340975,0.05127895,0.07913209,-0.078735985,-0.039534204,-0.007089892,-0.031722583,-0.07142142,-0.02431976,0.06215701,0.06763727,-0.063403554,0.041057657,-0.03302759,0.08909584,0.0766332,0.058135457,0.0878974,0.0070230593,-0.035672605,-0.01621023,0.053989794,0.056572188,0.023787457,-0.111543335,-0.08049121,-0.072059445,-0.031813625,0.08045228,0.024177363,-0.015175018,0.007095745,-0.036389004,-0.09956884,-0.0569687,-0.06148216,-0.052596297,-0.04243377,0.08860797,0.042434577,-0.026039338,0.052179288,0.02029963,0.048332237,-0.015717342,0.048879508,-0.022985969,-0.02752317,0.04191369,-0.07445589,-0.035795454,-0.036607925,0.08086038,-0.005810804,-0.07973504,-0.05211674,0.030898817,0.033568095,0.053465653,0.055063464,0.06764501,0.05225284,0.059856463,0.0025107786,-0.047457013,-0.057473797,0.016589347,0.066518135,-0.070701614,-0.0144493915,0.018326232,-0.0054876017,0.0067786505,0.053161666,0.09595599,0.020814067,-0.045653,-0.019310845,-0.012771782,0.007748488,0.03554695,0.06522637,0.0048296056,0.066639744,-0.02596272,-0.0680415,-0.027265923,0.0009966171,-0.009636404,-0.08776038,0.065961994,0.0137002235,0.030476393,0.03840988,0.002831261,0.03699336,0.028669415,-0.0056598266,-0.09981454,-0.04771668,-0.029104518,0.08199146,0.071874924,0.0025068861,0.07112464,-0.012197144,-0.02509684,-0.034596965,-0.0014329284,0.021996336,-0.0045046713,-0.03623752,-0.08696107,-0.03163423,-0.023365587,-0.012257235,-0.08112198,0.0085692555,-0.07245313,0.09348127,-0.074770585,-0.03354979,0.07721661,-0.02613834,-0.067222424,-0.07027654
Any_Means_Necessary,0.027779622,0.04681875,0.05394802,0.04479734,0.012452608,-0.068379335,0.06926465,-0.051033895,0.016632611,-0.013725755,0.06262536,-0.014869839,-0.05128918,0.0012206067,-0.057135914,0.06332757,-0.024087775,-0.0951082,0.07553432,0.00028111355,0.04455057,-0.033517994,-0.056120615,-0.05906473,-0.023984892,0.010958042,-0.036304887,0.05394756,-0.07203197,-0.06847286,0.03912481,0.07701759,-0.06424062,0.051915012,-0.017899113,0.034766667,-0.057299897,-0.063519485,-0.009244731,0.073413625,-0.09030784,0.038001616,0.07839908,0.004220205,-0.0035922988,0.015936082,0.04246767,0.028929403,0.043944824,-0.050521135,-0.043598503,0.10158362,-0.07485632,-0.047455817,-0.06747394,0.025688363,-0.035119742,-0.07909988,-0.020049328,-0.07307112,0.0871143,0.016934877,-0.031717155,0.0009134283,0.04372288,-0.07523474,-0.019255249,0.069194175,0.058518104,0.030812217,0.0638792,0.049918916,0.00031001918,0.07384342,-0.0025573669,-0.023609232,-0.03089578,0.053507574,-0.04325765,-0.04202956,-0.02522769,0.013072452,0.025998523,0.012478145,-0.0011085891,0.03454896,-0.019011224,0.024617355,-0.06799764,0.05605209,-0.013795162,0.026785804,-0.02609655,0.049921256,-0.041199394,-0.05920729,-0.01861505,-0.015332458,-0.02029717,-0.050508745,-0.04445793,-0.01700063,0.017254177,-0.08482469,0.05436804,-0.062466547,-0.05651704,0.036448095,0.019697046,0.052033707,-0.010628529,0.0397848,0.029801322,-0.0052488893,-0.02760179,-0.05891055,0.053177755,0.025079517,-0.014029209,0.015569949,-0.041101117,0.048840273,-0.0010802924,0.007072325,0.023083363,-0.074204944,-0.010434088,-0.02961797,0.08439806,0.008884904,0.059536956,0.074267894,0.05683274,-0.02667382,0.01048039,0.0283091,0.03283232,-0.016845157,-0.060346156,-0.019903509,0.06932943,-0.03759429,0.07607203,-0.02570901,0.027289186,0.05040977,0.054883786,0.04287159,0.073156744,-0.055951532,-0.07057145,0.012429125,-0.03382424,0.07474167,-0.071715355,-0.0011065372,0.08024896,-0.039928544,0.043227375,0.078621626,-0.059657972,0.042906776,0.06896611,0.038090818,-0.037073255,-0.023443837,0.02685002,0.02123616,0.023993393,0.0868328,-0.04564983,0.07297835,-0.07646023,0.03175899,0.09261342,-0.07410148,-0.082223564,-0.068331234,-0.0100424625,0.05394215,-0.015191399,-0.08094541,0.04914014,-0.026573906,0.06851882,-0.086428665,0.055926785,0.024944974,-0.05658152,-0.004600176,0.03985684,-0.10576954,-0.052959338,-0.044722944,-0.041672744,0.016000427,0.062068745,0.040395547,0.00791106,-0.092401996,-0.07089563,0.069521904,-0.060090527,0.013585784,0.060463075,0.064190395,0.08910989,-0.08105258,-0.008784665,0.04657347,-0.074748196,-0.06636074,0.056407247,-0.06155176,-0.030031245,0.08252828,-0.03918033,-0.027340788,-0.021534825,-0.07156289,-0.04102157,-0.008313857,-0.050594755,-0.053919844,-0.045264214,0.05868924,0.06814866,0.030583564,-0.002630647,0.010541134,-0.007580904,0.055821832,0.020105124,-0.07297769,0.06831097,-0.011275825,0.06765934,0.07699417,-0.024718607,-0.032294303,0.06701911,0.042395134,0.01812264,0.03241916,-0.014735295,0.029058501,0.09677494,-0.053775106,-0.038279027,0.058602232,-0.07987427,-0.09948262,-0.019511908,0.08799221,0.034805626,0.017664783,0.05627648,-0.09246896,0.06436468,0.01192479,0.06575295,0.047482487,0.057756804,0.063829705,-0.0052948855,0.092349485,0.08962951,0.029315291,0.061187953,0.04558019,0.068203256,0.07065554,-0.06525734,-0.028352117,0.0010407134,0.04449511,0.061186638,-0.014499508,-0.045678247,-0.039803337,-0.023126224,0.044465173,-0.049231917,0.052211747,-0.0364257,-0.051841073,-0.037563875,0.028193073,-0.019971153,0.02210451,0.06991554,0.006758259,0.02549435,0.06411666,-0.06460879,0.056301408,0.036892008,0.06539502,0.031680033,0.02660517,0.022566648,0.04416425,-0.04878201,-0.038716123,0.057440575,-0.00044725114,-0.071486756,-0.06938755,0.0877778,-0.070526816,0.01681783,-0.04936183,-0.09544604,-0.0068825223,0.012329326,0.06724053,0.058198225,-0.07448351,-0.036919925,0.07176392,-0.07012945,-0.03411936,-0.06705895,0.051375013,-0.07792534,0.049616765,-0.024506297,-0.091657214,-0.04286372,-0.013055173,0.07786573,-0.049720544,-0.056732666,0.013879446,-0.022424132,0.04583525,-0.02654873,0.08759746,0.022308838,0.07580691,0.09736703,0.07080091,-0.0060622683,0.06774615,-0.05938504,-0.032710087,0.08292898,0.06996345,0.02188941,-0.07486001,-0.03203054,0.056959637,0.0016994518,0.053034835,0.059865274,0.02597808,0.09552828,0.060423378,-0.078178346,0.07890835,-0.054146226,-0.012642521,-0.022524167,0.041980363,-0.01828264,-0.07280679,0.038019244,-0.019718656,-0.018512346,0.04975676,-0.067278825,-0.03414649,-0.033594646,-0.018973436,-0.091692954,-0.044966914,-0.016191026,0.09851378,-0.09035892,-0.06688799,0.027139401,0.040860943,0.07080449,-0.009606938,-0.068914235,0.015575985,0.06896373,0.042426635,-0.016557992,-0.021653077,-0.0528689,0.111228146,0.08916836,-0.040270362,0.080468155,0.013548194,0.023676256,0.044365197,-0.023544941,0.055748332
Appraisal,0.0027622979,-0.023892287,-0.016167192,-0.005850328,-0.07519603,-0.05553897,-0.055224154,-0.057989646,-0.0002799462,0.06518758,-0.01849894,0.033283416,-0.046447854,-0.038702216,-0.025014061,-0.03399097,-0.0075750113,-0.05633013,-0.022775866,0.075635016,0.09924751,-0.038490213,0.043063436,0.044400204,-0.034325346,0.0013230222,0.04194277,-0.037383053,0.06480913,0.021622816,0.05025057,-0.064109474,-0.04913323,-0.0002450593,0.043478437,0.067598544,0.027716465,0.0649675,-0.026889091,0.03839406,0.009567538,0.04964045,-0.0803156,0.037825726,-0.040887028,-0.017979542,0.017179482,-0.046355415,-0.036896564,0.06577978,0.021908866,-0.0036305059,0.06310931,-0.09745978,-0.035308026,0.08099986,0.02783353,0.02543534,-0.0013359262,0.056816377,0.07976378,-0.0032773202,-0.011305952,-0.007117378,0.050731935,0.015602312,-0.098941356,-0.10645984,-0.023107573,-0.020297697,-0.06917528,0.010557018,0.008439261,-0.041760493,-0.06783722,0.020401143,-0.09018695,-0.042843994,-0.023792785,-0.102209635,-0.044593804,-0.08169609,0.050282437,-0.01784518,-0.078463465,-0.018570216,0.00077085546,-0.06222606,0.073048845,-0.0622274,-0.063382834,0.04366164,0.037042826,-0.040602572,-0.0719381,-0.06800981,-0.008108424,-0.03409316,0.048011005,-0.036814608,-0.045582853,0.070198715,-0.075557426,-0.017192757,-0.053455442,-0.070786245,-0.029415557,-5.0893115e-05,0.038620435,-0.07980524,0.060468208,-0.069029346,0.04886479,0.016646244,-0.063344456,0.00017944665,0.00035843308,-0.05803357,-0.04410724,-0.07175714,0.062288437,0.018023811,0.036828257,0.0050148703,-0.043821316,-0.008916312,-0.056974232,0.019399328,0.05487332,0.054315396,0.04374183,0.026848078,-0.11494501,-0.012513309,0.052471228,0.070516005,0.0115510635,0.067036025,0.071433514,-0.07239839,0.07608744,-0.010374471,-0.03655756,-0.009293903,0.07877601,0.052740827,0.043310262,0.09819365,0.07103757,-0.005822427,0.020275367,0.016218677,0.012742852,0.00027735336,-0.016378785,-0.038614813,0.017300941,0.06941261,0.026726825,-0.0005096407,-0.053487588,0.012195318,0.049464837,-0.033670954,-0.09496401,0.03367793,-0.047753826,0.03877186,0.029211668,0.013043,0.026664084,0.032322526,0.08670395,0.08807374,-0.05794568,-0.033235405,0.036773007,0.03530244,0.050249994,-0.08345542,-0.06821818,0.00305692,-0.009292782,0.013128463,-0.040109955,0.03121353,0.062380224,0.09741122,-0.03552308,-0.039401665,-0.021887437,-0.021968374,0.07703075,0.04753574,-0.042384524,-0.01353771,-0.077246815,-0.010640364,-0.005385046,0.008670721,-0.023894712,0.04788631,-0.028641975,0.05291401,-0.052559778,0.041341003,-0.04194421,-0.07837262,-0.09610789,0.00973749,0.06042981,0.09886937,0.041756462,-0.0799859,0.08557113,-0.010201888,-0.0856375,0.089099415,0.06021177,0.052143782,-0.071878746,-0.05551919,-0.01541389,0.063180275,-0.05896201,-0.03685281,-0.07160206,-0.04255413,-0.0016430892,-0.034061935,0.06662794,0.05421481,-0.034038402,0.07712057,0.026627516,0.07911982,0.09060937,-0.042668745,-0.028460594,0.025276246,-0.058343783,-0.085598186,0.0679045,-0.05618382,-0.01591751,-0.025157357,-0.05173761,-0.09162009,0.06327682,-0.018605324,-0.010451384,-0.036557894,0.02150063,0.0019443764,-0.030545099,0.066034585,0.03324155,-0.036343165,0.008785614,0.07119904,-0.06581132,0.048254013,0.05644919,0.0112777585,0.08131959,-0.046455353,0.08760418,0.04251902,0.06322259,0.044836327,0.100217946,0.0141993,-0.011498313,-0.029510757,0.035535883,0.04096122,0.020934725,-0.08335991,-0.006125758,0.024990402,-0.08771623,0.09385206,0.044642106,0.057966784,-0.0853009,0.039381187,0.03874024,0.07403046,0.059703626,-0.05256282,-0.04101112,-0.0062278253,0.045995478,0.0023182712,-0.05692391,-0.0425447,-0.06222401,0.07754729,0.06264229,0.029950067,0.10312449,0.079990186,0.06956336,0.06664151,-0.106099874,0.06857471,0.08051357,-0.088185795,0.0033677062,-0.060919818,0.046380892,0.031234292,0.097719565,0.014649802,0.016838344,-0.07118123,-0.03397858,-0.026092727,-0.04892139,-0.09111439,0.10227252,-0.011517804,0.0038321076,-0.07703496,0.08599625,-0.033907913,-0.04109351,-0.0039448095,0.052432586,-0.0740844,-0.046607018,-0.01134514,-0.03327744,0.07550706,0.037643515,-0.013476644,0.018726423,-0.06071528,0.0017653068,0.03506793,0.027371656,0.036309294,-0.040917903,0.03760953,0.036814667,-0.07162961,0.009280319,-0.029753111,0.032431647,-0.073479734,-0.08422189,0.015497746,-0.01169566,0.050124567,0.073592536,-0.05790548,0.089883946,0.020676784,0.034759883,-0.061984703,-0.08866723,-0.03920377,-0.056384098,-0.0998303,0.03631982,-0.0025008023,-0.020723086,-0.06661832,0.051584464,0.0023260615,0.077413455,-0.0016236362,0.07586506,0.013872128,0.0750203,0.07646925,-0.04420659,0.06654463,0.014032288,-0.020250257,-0.06638762,0.010660999,-0.0394794,0.015363502,-0.0022409665,0.03827053,0.044654753,0.07156719,0.07582776,0.036917407,0.053659126,-0.046541665,-0.009181663,0.009939444,-0.055383015,-0.06257668,0.024544658,0.052194566,-0.06905843,-0.00067149784
Ashley_J._Williams,-0.059302937,0.014683104,0.0889317,0.0014541851,0.07736276,-0.016163435,-0.063114725,0.03293096,-0.07569752,-0.072845906,0.030135611,0.08145279,-0.027422402,-0.07319271,-0.06082161,0.07998547,0.01216118,0.011263445,-0.06489874,0.039336003,-0.01857133,0.016615914,0.02775268,-0.0038800822,-0.042619742,-0.031327922,-0.047972925,0.005678548,-0.021124303,0.0114204595,0.06644644,-0.0066294544,-0.007452409,0.0030646576,-0.09583118,-0.018278034,0.0032981199,0.029154416,0.064682424,0.01480185,-0.000897,-0.008156316,-0.10919504,-0.09010438,-0.07504284,-0.0005808697,-0.08644747,0.08577653,0.013262752,0.028415121,0.058527455,0.038928024,-0.062943265,-0.04271306,0.06878628,-0.025006177,-0.061531868,0.022039326,-0.06230902,0.03198426,0.08416568,0.024221214,-0.027897112,0.0718838,0.085087754,0.015236814,0.054091506,-0.018488035,-0.02356463,-0.0536186,-0.0034901954,0.02092803,0.049232952,-0.06416985,-0.063465275,-0.09444985,0.05712928,-0.017463388,-0.084582314,-0.04049739,0.06888217,0.033656847,-0.012700462,-0.048270285,-0.0026503839,0.063877285,-0.048115972,-0.06587492,0.099913515,-0.0026882035,-0.048875906,-0.0020218135,-0.034811698,0.053353753,-0.08599286,0.0257717,0.0025514017,-0.06667903,0.09310564,-0.005226466,0.01246603,0.040193483,-0.00037937966,0.021547267,0.06785481,-0.09261432,0.01614628,-0.058001604,-0.072398834,0.028065953,-0.09174099,-0.07486429,-0.038192045,0.059712674,-0.04516255,-0.009667465,0.0497765,-0.04959595,-0.047589667,0.026367377,-0.025630658,0.043130342,-0.0054975315,0.06632926,0.05663912,0.023733847,-0.012515149,0.07129674,0.06993975,-0.020526448,0.026052343,0.034730945,-0.021091633,0.051326655,0.06104437,-0.049251072,-0.013190954,0.028401019,-0.0026635185,0.0005082741,-0.0013905974,-0.07881973,0.036871143,-0.08164816,0.04126055,-0.076782845,0.06674307,-0.05098022,0.026943732,0.08855456,0.04842856,0.0016284067,-0.063703515,-0.022570368,-0.02504819,0.014986705,-0.07860173,0.0749248,0.015562722,-0.102349244,0.06907428,-0.02876589,0.031117855,-0.08707475,-0.05287519,0.029963832,-0.01357142,0.07861336,0.013693303,-0.02032951,-0.07870947,0.041752294,-0.05121826,-0.004437025,0.018564766,-0.0007338349,-0.036634296,0.03930548,-0.034872957,-0.07033564,0.017689522,0.027434288,0.03578189,-0.053120233,0.050001092,0.06789942,0.023192845,-0.013962932,0.099435255,0.056004554,-0.043113567,0.055332955,0.06516298,0.038370244,0.013918285,0.035121717,-0.007537004,0.038882196,-0.033918366,0.074514285,0.0015107575,-0.0632882,0.10252932,-0.003825582,-0.004766385,-0.012031779,-0.044700563,0.06505385,-0.046053607,0.023344092,-0.0015202145,-0.038504962,-0.020598114,0.061942447,-0.055907555,0.053205945,-0.04338461,0.0013406767,0.04895513,0.02099366,-0.07104329,-0.005302115,0.038831484,-0.074002944,0.0019965149,0.042572793,-0.06879221,-0.022871925,-0.045698524,-0.010244616,0.04645791,0.039026503,-0.054634392,-0.059116565,-0.050666317,0.0759093,-0.04398452,0.08510593,0.060398772,-0.014261614,-0.09866071,-0.101861335,0.045664422,-0.007737645,-0.079563856,0.016488347,0.043172013,-0.03514187,0.023753839,-0.027010862,0.09887266,0.010106036,-0.02541664,-0.013727516,0.013011897,-0.059487976,-0.07297224,0.07559354,-0.013520292,0.032368753,0.08457226,0.005306398,-0.08252735,0.071659215,-0.026939968,0.0012606636,-0.1026308,-0.08634477,0.05446954,0.0532197,-0.026786556,0.0099409325,0.07455697,-0.02380295,0.058767915,-0.047087837,-0.013689756,0.048482236,-0.026893772,-0.017848559,-0.032872237,0.0357926,-0.037333135,-0.002908996,-0.06575581,0.006231015,-0.047274403,0.010666654,-0.026443163,-0.053908233,0.05327738,0.034255344,0.01657971,0.06994925,-0.0031101613,0.08334229,-0.01649853,-0.07873185,-0.032314226,-0.042543657,-0.070105456,0.060508277,-0.025126176,-0.0031610965,0.055808682,0.010747504,-0.06404326,-0.025313793,-0.07778985,0.06291241,-0.018622281,-0.009305474,0.024001641,-0.007973459,0.044800483,0.010111652,-0.024869997,0.053442013,0.06478479,0.089127064,0.060153253,-0.04158969,0.044817302,-0.038412735,-0.062811166,-0.039033342,-0.0341538,-0.062306046,0.014722798,-0.074518,-0.0066064047,-0.04912466,-0.053090602,0.07524664,-0.0701846,-0.065748505,-0.021192577,0.04024997,0.03860728,0.0886971,0.040018722,-0.02931859,-0.015941503,0.02750781,-0.04164865,-0.029982444,0.008613923,-0.03316346,-0.040318538,-0.017310048,0.01641268,-0.09174444,0.018342488,0.06759265,-0.066216156,0.053511214,0.01176329,-0.06819744,-0.031167699,-0.031680465,-0.030442888,-0.0006356094,-0.06884242,-0.0052043255,-0.050655104,0.03655548,-0.08742037,-0.051805887,-0.017300839,0.030398956,0.10033687,0.04930332,0.076295204,0.022731237,0.073218875,0.09224222,-0.013683875,-0.03969204,0.09559183,0.03550144,-0.014788088,0.06372773,0.019386515,-0.0026988487,-0.021835616,-0.07413687,-0.048253536,0.040976115,0.021274647,0.07489673,0.024962993,0.041035544,-0.028368723,-0.0727812,0.060038313,0.07362721,0.04233676,0.05830669,0.010178498,-0.044931676
Autodidact,0.017401384,-0.08856132,-0.030618057,0.053978406,0.024791034,0.0358985,-0.08914849,-0.035791352,0.0346521,0.06408765,0.06539664,-0.058373205,0.059767,-0.0067056534,-0.053598866,-0.060471404,-0.019253055,-0.031122062,-0.061908647,0.088361725,-0.05170364,-0.029800566,-0.0012169981,0.007201182,-0.066371806,0.003918492,-0.049732476,-0.07791184,0.016384296,-0.025321431,0.0955595,0.02559263,-0.037026383,-0.021384653,0.063743554,-0.064304225,-0.030029416,0.04396045,0.0042832997,0.055640396,0.092593394,0.059663836,-0.009510777,-0.08387832,-0.10412429,0.020192042,0.014355345,-0.0199273,0.040390953,0.013922617,0.004313873,-0.04410466,0.013101698,-0.04820441,-0.018959066,0.0059578363,-0.07809212,0.030786946,-0.044672232,-0.057409436,-0.074632734,0.03678364,0.046958487,-0.083056144,-0.023152145,0.009028428,-0.056048177,0.04854331,-0.09091341,0.03525834,-0.07989388,0.07660667,0.05196094,-0.06336294,0.050615605,-0.07307915,0.0032024754,0.025420442,0.072485335,-0.025037477,0.039306052,0.022019096,0.039270837,0.10027228,0.0014533681,0.041906863,-0.034520794,0.0069242013,0.097611114,0.07932574,-0.042839415,0.045604,0.015193449,-0.084922336,0.00085539266,0.06255263,-0.062565476,-0.087185234,0.041838333,-0.015845824,-0.07340262,0.02872879,-0.08131502,0.05250385,0.08765226,0.068678536,0.033677045,0.09909992,0.058622014,0.06360647,0.07009437,0.041692168,-0.016874613,0.031760823,-0.01696739,0.040458154,0.031548794,-0.07945941,0.006597777,-0.018990677,0.080667734,0.02088949,-0.03701358,-0.06852073,0.015887659,-0.0464731,-0.012150543,0.012379668,0.09972911,0.05260692,-0.029615557,0.006462005,-0.10596828,-0.021800358,-0.06920445,0.0852118,-0.08683221,0.008535505,-0.057142053,-0.04650798,0.078429736,0.06678171,-0.09274245,0.054739863,-0.011683873,-0.010927532,-0.028452639,-0.03854235,-0.015887508,0.030339442,0.04793453,-0.020610185,-0.04139517,-0.0076913387,0.055981964,0.073596194,-0.07939,-0.014682728,-0.027913118,0.06648006,-0.026277594,-0.08094238,-0.08375005,0.028736781,0.03616446,0.06818212,0.080264576,-0.03762961,-0.07965145,0.09524592,-0.077421,0.01153845,0.06113645,-0.010399597,-0.03857733,-0.044685483,-0.026533213,0.031516794,-0.0065022795,-0.00029341594,-0.07171741,-0.08260967,-0.015656509,0.0020339284,0.03145442,-0.07429692,0.030429836,0.0012157069,0.049657416,-0.012602602,0.027078174,0.0726777,-0.0031585305,-0.010579152,-0.10129427,-0.10258851,-0.049298607,-0.040474754,0.026127206,-0.025682589,-0.008398531,-0.037467808,0.017957497,0.06741056,0.03480678,-0.058085777,-0.027930958,-0.06433821,-0.03168215,-0.047018882,-0.000118474745,0.0019599448,-0.0430324,0.06932651,0.09962515,0.02615571,0.03365267,0.0649759,0.09624216,0.0960907,-0.083467625,0.018814968,0.059203982,-0.029339137,-0.101994,0.059069034,-0.03429881,-0.05747257,-0.049571462,0.053289738,-0.018664273,-0.06323927,-0.060871147,0.032065906,0.027842611,-0.08336128,0.023026267,-0.008428468,-0.04999306,-0.040979303,-0.028222801,-0.04942458,-0.058151163,-0.020847963,0.03250442,-0.015787488,0.017437758,0.034205418,-0.05457858,-0.098776974,-0.017767798,0.028154416,-0.056612242,-0.067811064,-0.010614163,0.046463307,-0.029005246,0.0033402285,-0.063281335,0.016011653,-0.052726503,0.0306245,-0.07461533,0.037056286,0.015807102,0.042927194,0.010038588,-0.021673337,0.08638006,-0.08821643,0.007626316,-0.06821717,-0.056631554,0.009988422,-0.03374449,0.057143994,0.030970946,0.0447679,0.049638525,0.081798464,-0.09880633,0.08351247,-0.03496837,-0.03501949,-0.04354591,0.046382878,-0.067795426,-0.060571086,0.01049757,0.08926395,0.004960885,0.042816505,-0.04903118,-0.05368965,-0.058721233,0.0089022415,0.022213772,0.03526123,-0.0619582,0.046945892,-0.044665202,0.04352931,0.09985913,-0.058695216,0.046463974,0.02215238,0.05216641,0.004063279,0.050977964,0.024500467,0.08644603,0.025877764,0.02974654,0.08559939,-0.07345901,0.030768827,-0.045650467,0.06354099,0.05362038,0.059033927,0.05683316,0.008171566,-0.027640903,0.036775183,-0.045159113,0.030909043,-0.05141715,-0.04021127,-0.0049391543,0.027025932,-0.0013495687,-0.0052745715,-0.03630617,0.091918245,-0.028842991,0.011636967,0.041452054,-0.03783337,-0.029072735,0.007253839,0.0030786176,-0.052161623,0.061528202,-0.06571117,-0.010909012,-0.09950356,-0.043088373,-0.014224867,-0.053281028,-0.035197802,-0.017960347,-0.091105364,0.0835496,0.02751139,0.0681375,-0.023728676,0.074725896,0.053802326,0.05059789,-0.005601696,-0.06848995,-0.09513445,0.034140363,0.04130812,-0.055625603,0.027900891,-0.08253427,0.03446028,-0.09093834,-0.07244215,0.010367977,0.017831078,0.06924245,0.02054498,0.0016608073,0.09856847,0.0105259195,0.069796704,-0.0025053024,-0.005008308,0.09907939,0.058752038,0.004694414,0.027245028,0.049662624,0.01932688,-0.01078946,0.080084056,0.050587967,-0.02211743,0.06963461,-0.067113355,-0.07714906,0.025795316,-0.075689256,-0.060213566,0.02086109,-0.05978376,0.054870486,-0.068177685
Awakened_Awareness,0.08273597,0.00089758023,0.015014776,-0.04326391,-0.019339228,0.09614746,-0.04419182,0.08226299,-0.097439066,-0.06999362,-0.07792093,-0.083410054,-0.057159696,0.045822315,-0.022410573,-0.049812578,-0.04705081,0.092815496,0.05453873,0.022581162,-0.020181082,-0.06160101,-0.026261976,-0.07096443,0.04352826,0.03526449,-0.043363262,-0.078180775,0.056589484,-0.07340822,0.05724117,0.054819565,0.050005827,0.06763128,0.01835752,0.008649609,-0.012584285,-0.084378295,0.039891012,-0.08762712,-0.023773555,0.08982332,-0.0062928465,0.022954717,0.004626299,-0.07918194,0.0058401595,0.05639426,0.008374702,-0.013059926,0.07983794,-0.06791961,-0.08228575,-0.00011772492,0.053551927,-0.040104892,-0.03249012,0.008879388,-0.06756372,0.0029076699,-0.03251251,0.031087654,0.07459056,-0.0037622845,0.072224185,0.015732067,-0.01765771,-0.011062812,0.015224547,-0.06364023,-0.04331822,0.07357016,0.007692257,0.09170743,0.010713037,0.063505284,-0.07269115,0.027698893,0.08708855,0.09967714,0.058238458,0.058689475,0.0046929065,-0.015469012,0.055453733,-0.057494197,0.073713794,-0.03754015,-0.049690135,-0.051634535,0.00792821,0.019128384,0.05230937,0.06012626,0.008557079,0.028171798,0.11485725,0.048287034,0.06734818,0.012810944,0.05743004,-0.06475094,-0.013676753,-0.030258117,0.018645324,0.05718124,-0.06491034,-0.021482553,-0.030654812,0.026936432,-0.03998847,-0.06227096,0.031510577,0.05322059,0.06743178,-0.058479078,-0.06236512,0.032736905,0.0015087246,0.015635855,-0.088123426,0.05405379,-0.07426821,0.066100314,-0.07012523,-0.07308918,0.0063081845,-0.06466733,-0.033121258,0.04389849,-0.0864016,0.053820904,0.086058386,-0.01218149,-0.033473436,-0.03811039,-0.022594392,-0.01299992,-0.042850517,-0.0007829152,-0.03318113,0.0835006,0.053024497,0.0962504,-0.02649406,0.08180576,-0.1043538,-0.075954825,-0.009672543,0.016584085,-0.05830739,0.064321026,-0.028822314,-0.028441695,-0.07650807,0.0066129183,-0.06895506,0.020439815,0.11263619,-0.049503796,0.048450954,-0.038459912,-0.065016344,0.05418364,-0.06628651,0.030535992,0.016170967,-0.024026997,0.0069124727,-0.046854157,-0.039645962,0.026665287,0.020972533,-0.009794907,0.039882313,-0.01611679,-0.05272113,0.010119752,-0.058587857,-0.08633383,-0.04019215,-0.016468229,0.035660554,-0.022224125,-0.04603388,-0.004922575,-0.014333061,-0.0784984,0.059187617,9.3774725e-05,0.10788128,-0.06813934,0.024189139,0.08902901,-0.051046953,-0.059839692,-0.07896899,0.09866661,0.017867872,-0.054255962,-0.05297216,0.037984885,-0.034131728,-0.024420936,0.034988124,-0.016718317,0.03732053,-0.021214869,0.089865275,0.062355828,-0.054349087,0.01823357,-0.0013488224,-0.06577158,0.041070163,-0.01508737,0.03272365,-0.060261425,-0.031509276,-0.06560158,0.058381274,-0.007342501,0.06408034,-0.08979901,-0.0054776953,-0.05612126,-0.08210251,0.041115798,-0.033787522,-0.025414443,-0.009577512,0.024178393,-0.022495823,-0.09965381,-0.017828839,0.031024361,0.020842547,-0.03912026,0.035683375,-0.07078058,0.046890244,-0.019343443,0.011565181,-0.059703004,-0.019243903,-0.05071726,0.05416885,0.05285152,-0.09893606,0.005145945,0.044910025,0.03749188,0.070183925,0.04577915,0.04819389,-0.08877138,0.0231383,0.061005726,0.053276382,-0.018799784,-0.061057538,0.026567407,-0.023355456,-0.06665715,-0.046515584,-0.044569682,-0.08478167,0.047507998,-0.09792743,-0.0255082,0.019848,0.05943126,-0.0068443255,0.09113012,-0.020678533,0.10799997,-0.053821236,0.07960354,0.101178296,-0.023541017,-0.031172412,0.057512496,-0.023883207,0.038628515,0.067781426,0.06690495,-0.034015574,0.032367717,0.0044838493,-0.031130448,-0.05521437,0.04420641,-0.001381931,0.08111129,-0.019612614,-0.041247647,0.044163194,0.07566243,-0.0374738,0.04372314,0.047339592,-0.07606885,0.01661456,-0.024886256,0.050631195,-0.011973045,-0.07371553,0.057601944,-0.109536834,-0.020794032,0.07405773,-0.015136961,-0.008068459,0.055701032,0.08235634,0.036659658,-0.029420126,-0.01762201,-0.060535062,-0.025922168,-0.08877461,0.017896745,0.03788648,-0.051836573,0.031950884,-0.012572342,0.006880105,0.010711971,0.1091984,0.10653082,-0.06868338,0.024154784,0.019540044,-0.06820988,-0.0174667,0.051062576,-0.030960647,-0.021153891,-0.023138564,0.09025389,0.008007649,-0.0076057566,0.03746734,0.045244925,-0.042714253,0.0058818473,0.032117967,0.06894913,0.033560313,0.008919383,-0.027917624,0.0785677,-0.08556146,-0.041008536,0.005009306,-0.024944006,-0.10238663,-0.070646614,-0.034931228,-0.036307916,0.014371839,-0.06349539,0.044048563,-0.008928117,-0.023368929,-0.0033341984,0.06437689,-0.09068188,-0.032600306,0.017352516,0.05208547,-0.06626188,-0.032975994,-0.015513768,-0.06303955,0.021559985,0.04318436,-0.088966876,0.012381696,0.015510622,0.005654144,0.011251751,-0.09593282,-0.088889815,-0.011067891,0.05912247,0.03447201,0.024359465,0.04467773,-0.0024672442,-0.0100014815,0.0609885,0.061248023,0.020348303,0.09204972,0.08234937,0.09733657,-0.032845687,0.083749205,0.07872529
Babysitter,-0.035580963,-0.050331317,-0.03817867,-0.038128883,0.0534402,0.00044893374,0.065527625,0.046000857,0.099915035,-0.026844753,0.020814013,0.09942377,0.058147978,-0.061953254,0.045831677,-0.014627461,-0.019135289,-0.0037357213,-0.0468185,0.036094062,-0.041074958,-0.06379591,-0.022509353,0.013645709,-0.0119349025,0.06066636,-0.071975835,0.04184032,-0.022595773,0.09156213,0.07195671,0.09164107,0.057867486,-0.018285543,-0.08776051,-0.06281295,0.042509567,0.045515977,-0.02676613,-0.089124195,-0.046695508,-0.010476505,-0.07516671,-0.065021604,-0.099414095,-0.05711558,-0.030915909,0.072643846,0.02366786,0.074172735,0.057267196,-0.10080447,0.059308868,-0.099502414,-0.037709605,-0.023964008,0.037280347,0.0032024644,0.10396398,0.012174773,-0.031420935,-0.051859558,0.03599185,-0.085202016,0.030591626,0.043638963,-0.017922018,-0.06795225,0.046009455,0.04253358,-0.044159032,0.0036887676,-0.06360387,-0.0010208205,-0.07688654,-0.018160779,-0.017263183,-0.055827428,-0.048190232,-0.0022981986,0.059020277,0.029786509,0.064196855,-0.013634761,0.021617422,0.031898532,0.0008067832,0.041052625,0.058419257,-0.029741893,-0.05305546,-0.015952423,-0.01979205,-0.026422514,0.053833123,-0.018742664,-0.00468902,0.019186387,0.07610177,0.08399006,-0.07214273,-0.033847604,0.0012903748,-0.01554669,0.027149472,0.009828096,-0.04937081,-0.051199198,0.053516444,0.050812274,0.06816294,0.080888145,-0.05250668,0.031372298,0.078701235,0.017603528,-0.03867222,-0.015248962,-0.07707734,0.021549525,-0.061074886,0.050685976,-0.020207314,-0.07798815,-0.051813208,0.026182137,0.052729238,0.0075854855,0.016716592,0.045347117,0.07134055,-0.019127969,-0.0643202,-0.03824611,-0.005104835,-0.01645432,-0.04304796,-0.032848045,0.05127329,-0.0744434,-0.0920711,-0.007805637,0.009742328,-0.07342474,0.014737452,-0.041982204,1.6319296e-05,0.09508656,-0.025204549,-0.017906671,0.043172114,-0.028652301,-0.097762056,-0.10087012,0.02655405,-0.050477628,0.08103828,0.07534757,0.037581924,0.014945076,-0.04509836,-0.07750188,-0.06678297,-0.036622528,-0.0734907,-0.07192018,-0.03888033,0.040898334,0.009545008,-0.028720068,-0.045926314,-0.043223836,0.048284076,0.06525912,0.044983037,0.064310454,0.044400793,0.06925675,-0.036362085,0.05466836,0.060687512,0.017777633,-0.044888977,-0.0068780184,0.04840603,-0.04822683,-0.05485528,0.00035185594,0.038583618,0.02730661,-0.045116767,-0.021966243,0.0045808856,0.036218543,-0.0622542,-0.022749808,-0.09732203,-0.007546413,-0.05342955,0.08040219,0.088043,-0.06253518,-0.0006716789,0.0033762103,0.08427021,0.00739515,0.07216277,0.008953224,-0.08784162,0.042164043,-0.009700453,0.08031408,0.03329067,0.013246346,-0.05039122,0.05363255,0.0030175971,-0.020011239,-0.060523193,0.083170675,0.031918667,-0.0124487905,-0.00018956429,-0.031452015,-0.100708865,0.06556379,-0.035962705,-0.051755637,-0.012189585,0.08804303,-0.073095925,0.0055928747,0.064529866,-0.022600796,0.06021705,0.050044112,-0.061982267,0.06497398,-0.041146163,0.03139724,0.0383093,-0.039276157,0.050055414,0.0675294,-0.07173491,-0.02711078,0.068585806,0.007258796,0.06826623,-0.051208615,-0.0049958173,0.054694135,0.04965811,-0.045974508,-0.029299006,0.080171876,0.035659585,-0.023823122,-0.06583283,0.0640779,0.0065184436,0.10706189,-0.097264424,0.024678942,-0.061746974,-0.0641398,-0.025135553,-0.028960139,-0.04654692,-0.07125026,-0.04678617,-0.10121546,-0.024402868,0.017015824,-0.100935966,0.016792826,-0.034846015,-0.008417405,0.039157335,0.074991085,-0.00062102673,-0.02424386,-0.016944475,0.035752576,0.037043307,0.018379308,-0.083559245,0.02890147,0.04445143,-0.052251786,0.060326308,0.032695353,0.07724877,0.04467174,0.076351315,-0.016901182,-0.08228409,-0.015455072,0.005751593,0.036161035,0.03386223,0.04311163,0.099617474,0.0715984,0.0011374556,-0.063094415,-0.056538433,0.06787197,0.025320532,-0.052329015,0.05393314,-0.06713448,0.051997796,0.02725818,-0.0766438,-0.042327657,0.042385638,-0.021533944,-0.0759109,-0.0049233963,-0.026671605,0.05487886,0.046553835,0.03670491,0.03728068,-0.08203709,0.023152359,-0.020660056,0.023835607,-0.06365894,0.08206614,-0.031854402,0.018131958,0.04844536,-0.050974615,0.002745448,0.005322339,0.015042794,0.012205906,-0.05310741,0.031103646,0.026651368,-0.083567746,-0.0055717244,0.026244614,-0.05994709,0.009677831,0.053227928,-0.0047717653,-0.036024664,0.04146352,-0.008326151,-0.051180996,-0.075745516,0.0034997633,0.053888466,0.064785495,0.079781875,-0.05499755,-0.045239165,-0.04499314,-0.029588582,0.0025525053,-0.06563314,-0.021696111,0.04401623,0.05646387,-0.026568562,-0.08907867,-0.09286324,0.0978142,0.03450842,-0.03578898,-0.01712605,0.028578881,-0.027897628,0.058799237,-0.010293809,-0.07472933,0.0032574814,0.052931927,-0.014868466,0.05803645,0.03502192,-0.012008015,0.030011488,-0.047686286,0.06141954,-0.025638418,-0.05738844,-0.06312053,0.0088993665,-0.109496444,-0.01635495,0.006697852,0.040066976,-0.014276699,0.08530489,-0.019800166,0.017987596
Background_Player,0.051685926,0.059592675,0.05436989,0.033061527,0.063481495,0.035073902,-0.0646319,0.058510162,0.036562845,0.05806453,0.03497081,-0.002633384,-0.080190614,0.020610245,-0.08614252,-0.07804468,-0.09547852,-0.051141374,0.019866848,0.063718125,-0.008388596,0.031187018,0.018382484,-0.012215218,-0.04285409,0.07380816,0.03303596,-0.020225752,-0.0627941,0.076180875,0.07227277,0.09024763,-0.08438899,0.0315825,-0.06405012,-0.046045274,0.050522722,-0.06898655,0.060333632,0.004647915,0.05696594,-0.033953723,0.018995373,0.07632673,0.0028970004,0.0033447247,0.016549518,0.057405386,-0.023464581,0.053900354,0.06731749,-0.028132586,-0.056197673,0.031248266,-0.011210293,0.0047617974,0.03075184,0.058313094,0.08104407,0.064577416,0.07634419,-0.064943455,-0.07957553,0.059032157,0.05282496,-0.085329704,0.021468788,0.06624004,0.066787526,-0.040471416,-0.015133881,-0.04631307,-0.013899651,-0.048940483,0.0701108,0.046873104,-0.041400027,-0.037565473,0.026083793,-0.016224517,-0.054016437,-0.081101894,0.023132145,-0.0078152735,0.031465888,-0.032007024,-0.036058296,-0.04074419,-0.06379772,-0.08675792,-0.07178979,-0.0745467,-0.019982627,0.047474716,-0.037072536,0.06077477,-0.08958997,-0.014098315,-0.04710327,0.0936544,0.023878312,0.050911922,0.029249191,0.043290403,-0.013922319,-0.06962156,0.050836395,0.03235804,0.0043832203,-0.09014524,-0.048417173,0.060455218,0.06748537,-0.040658087,-0.03997704,-0.044462066,0.031526107,-0.0714626,-0.08636473,-0.06237575,-0.022595618,-0.04176099,0.03295322,0.02978955,0.07743339,-0.006494226,-0.0067843897,0.07312655,-0.06822781,-0.09301031,-0.02244226,-0.022744639,-0.05491336,-0.064500175,-0.011505967,0.09207447,-0.00057879055,0.0038032918,0.06392066,0.017732212,-0.030786702,-0.036771394,-0.012904173,0.008097964,0.020051453,-0.005843081,0.083007514,0.010708045,0.0952967,-0.032268785,0.07115528,0.09344597,-0.011923255,0.07408767,-0.043299768,0.07288229,-0.00017178584,-0.03805789,-0.08342937,-0.09563881,0.07113014,0.010747059,-0.012993259,0.019100888,0.06673746,-0.018373469,-0.053986497,-0.054283578,0.020366266,0.049263548,0.04532566,0.052738268,0.03785507,-0.04055719,0.086051136,-0.015985675,-0.01694493,0.040039245,-0.003333359,0.050108,-0.05568073,-0.02097969,-0.0780893,-0.0684642,0.04129349,-0.021307461,-0.016408242,0.085449934,-0.08508709,-0.0008437443,-0.07748932,0.014657161,-0.009749463,0.07198977,-0.042266406,0.05380305,-0.08982059,0.06163723,-0.05586782,0.06857628,-0.03561008,-0.08871245,0.012988123,-0.05506439,0.09763821,0.06402145,0.061461303,0.057827372,0.006842497,0.06828305,0.06742977,-0.049883015,-0.023173997,0.06442934,0.0806234,-0.048192494,-0.08133975,-0.031236257,-0.02305671,0.06368079,-0.04691814,-0.059181117,-0.032928016,0.031377535,-0.0058632595,0.051218126,0.09054392,0.004870665,-0.012078973,-0.01444372,0.07932191,0.07655269,-0.0073998417,-0.053716492,0.031162946,-0.054919206,0.03059398,0.018341295,-0.0188906,-0.068830624,0.035394154,0.04967555,-0.017275836,0.043713033,-0.038768344,0.061713584,0.04597493,-0.052712627,-0.0797211,0.06421546,-0.055969756,0.06493252,-0.057484362,0.060718987,0.0680574,0.0052727927,-0.04007085,-0.06362311,-0.06435835,-0.016556527,-0.009664921,0.08598471,-0.005625814,0.043082964,0.01743321,0.039742235,0.02411392,0.07943272,-0.024410147,0.043640696,0.014135766,0.07549267,0.06402886,0.056904998,-0.0740946,0.03202009,0.0035193323,0.069786526,-0.031142863,0.04795138,-0.07106376,0.097906634,-0.028597586,-0.06950233,-0.07813293,0.060405713,0.06545796,0.03746453,-0.031451877,-0.014369282,0.0769724,-0.011340734,0.018936051,-0.052653946,0.026930073,0.01615035,-0.0030045307,-0.013730372,-0.074935414,-0.03506439,0.09188058,0.031660438,-0.05987169,0.03339053,-0.00015141838,0.068942204,-0.060345348,-0.03611239,-0.058811005,0.048966132,-0.007305067,-0.05763284,-0.051049493,-0.041466087,-0.02512982,-0.05074865,-0.062418867,-0.033757426,-0.07475108,-0.07482827,-0.06978678,0.095767096,0.040835515,0.041847385,0.09092617,-0.036770638,-0.021254374,-0.063873075,0.016366856,-0.064960405,-0.0042131967,0.050183672,-0.038271617,-0.07399208,-0.08570556,0.09001176,-0.047443558,-0.04247266,-0.04405253,-0.034528058,-0.020345034,-0.031016925,0.009674507,0.06147371,0.07703407,0.06434233,0.08146264,-0.077281564,0.021952508,0.05063484,0.09380435,-0.0051140985,0.08996824,0.05716416,0.008050795,-0.022140773,0.084578544,-0.07103347,0.08314214,-0.005086977,-0.07695741,0.052776318,0.07671506,0.06672961,-0.032410473,-0.037329286,0.061813362,0.062927194,0.050377592,-0.038536377,0.009599754,0.013460219,0.0069364887,0.06938879,-0.018472437,0.039314758,0.027493015,0.02209597,-0.025332185,-0.038839728,0.03218894,0.030881695,0.07265073,-0.06824785,-0.01749254,-0.033721484,-0.011222405,0.0779125,-0.00612545,-0.052559018,-0.049905296,-0.034538947,-0.0324694,0.07618771,0.040722553,-0.099207364,-0.07952043,-0.053791694,-0.09744329,0.04582526
